2384 100
быть -0.12701069 0.0141834 0.019662106 0.0041996622 0.027420009 -0.41638055 0.056221507 0.318096 -0.1472737 -0.16040619 -0.120568864 -0.24532233 -0.17747574 0.10678222 0.049250547 -0.15699224 0.055615067 -0.12458465 -0.10419705 -0.1015141 0.12942073 0.07014896 0.04299867 -0.020068714 -0.03179404 0.024570268 -0.05242982 -0.093690865 -0.06251338 -0.099905744 0.2858718 0.095385864 0.03898707 -0.10414679 -0.10453349 0.2106662 0.108025946 -0.13675329 -0.088561535 -0.27836427 -0.032663204 -0.13916954 -0.14230604 -0.12147138 0.1138049 -0.0058597913 -0.106233284 0.09587606 0.09755573 0.07791556 -0.0050181863 -0.2349116 -0.034486018 -0.021004844 -0.21582994 0.13037756 0.15519458 -0.11856758 -0.11637806 0.23747201 0.06737649 0.08312394 -0.04103397 -0.08051252 -0.17269096 0.1763007 -0.005539891 0.08799335 -0.21334921 0.18142496 -0.10739004 -0.026797023 0.2969091 -0.08884073 0.2756586 0.13051105 0.05957308 -0.033764 -0.07804282 -0.071251914 -0.11559306 0.058498368 -0.098569535 0.22770955 0.015292358 -0.07817098 0.063907765 0.2105695 0.19944365 0.1634702 0.22290641 0.002341013 0.028513247 0.07504623 0.0901405 0.14073896 0.060922086 -0.17015131 0.060729876 0.060384817
год -0.12712273 0.0409502 0.08771058 0.011706512 0.102566965 -0.4338838 0.02713058 0.34528068 -0.13465305 -0.23043546 -0.16851829 -0.31087488 -0.15835842 0.06550256 0.063372865 -0.13800496 0.15690663 -0.121990874 -0.020860234 -0.1546741 0.1767784 0.06499796 0.03574654 -0.040479723 -0.06296066 0.117387615 -0.10585349 -0.07827256 -0.0302149 0.006760605 0.21160741 0.105052486 -0.02545254 -0.1719802 -0.10166296 0.23008162 0.13228 -0.10331434 -0.07318177 -0.19189423 -0.007854422 -0.22155313 -0.20590326 -0.13906252 0.1831187 -0.021464378 -0.11384761 0.07315137 0.12717225 0.05702419 0.08982163 -0.25244603 0.011995497 -0.03923133 -0.22306412 0.09278953 0.14110407 -0.09482574 -0.07175481 0.2915198 -0.024336156 -0.012739889 -0.012538155 -0.003110568 -0.09727821 0.19128728 0.06455428 0.06419453 -0.20296071 0.1772903 -0.1278774 -0.06670264 0.31850767 -0.048611794 0.19401501 0.10404221 0.028052343 -0.047637433 -0.028382413 -0.062397096 -0.1889573 0.07248754 -0.023294317 0.13887873 0.08673838 -0.15001751 0.13583322 0.23237906 0.25202447 0.11969031 0.2716079 0.038981132 0.05674908 0.04199962 0.018628256 0.13749236 0.09288262 -0.1291811 0.025231171 0.13110213
россия -0.06699996 0.025827147 -0.043581605 0.08544078 -0.008692334 -0.35898107 0.019157011 0.3634141 -0.24248655 -0.10471292 -0.12304247 -0.2357034 -0.09503064 0.09504571 0.0043987012 -0.19111918 0.060728658 -0.082410194 -0.17740522 -0.043591343 0.006787761 0.036662284 0.052340496 0.002947994 -0.011217281 0.0073607033 -0.034145966 0.055831626 -0.06502223 -0.09389351 0.28345907 -0.0047421777 0.036463276 -0.04432495 -0.13076094 0.24503171 0.1284066 -0.23165374 -0.13264017 -0.3751492 -0.1040165 -0.114686765 -0.017464817 -0.002737514 0.07094177 0.016030034 -0.09459484 0.055801623 0.046685115 0.04446174 -0.031082455 -0.29181957 -0.053261872 -0.05129929 -0.2944922 0.14191312 0.14353263 -0.15106125 -0.16523567 0.17792293 0.20681362 0.033141695 0.049407486 -0.030156521 -0.26327714 0.18252073 0.07135088 0.23508514 -0.20326261 0.27420226 -0.084130585 -0.011777388 0.3170985 -0.016170304 0.33517775 0.22610706 0.040711142 -0.052360494 -0.1181343 -0.09166547 -0.07710771 0.113693 -0.17229803 0.19428058 -0.056533955 -0.17496781 -0.014813383 0.14050399 0.218047 0.21078649 0.24380133 0.010579314 -0.013867245 0.14312206 0.2133793 0.16088034 0.09844839 -0.18022418 0.051732935 -0.0069243805
декабрь -0.16572377 0.017142074 -0.021332365 -0.018506473 0.047537394 -0.3685187 0.041485563 0.34331626 -0.14981386 -0.10584056 -0.08358451 -0.19155362 -0.12854236 0.07252205 0.061408196 -0.1668438 0.04058126 -0.12101241 -0.1474256 -0.061537407 0.04456405 0.035519402 0.1032669 0.006038422 -0.062204387 -0.013925805 -0.005174198 -0.046369445 -0.065581106 -0.11239191 0.33503887 0.10930094 0.017497292 -0.070270315 -0.07345777 0.22422537 0.10936102 -0.18531102 -0.14704372 -0.2909572 -0.015505995 -0.12437314 -0.06299858 -0.07638565 0.117969975 0.021370297 -0.0199555 0.0759629 0.07952834 0.04399929 0.02071449 -0.2386109 -0.04311687 -0.064435326 -0.28346407 0.12754303 0.14495324 -0.06840143 -0.13940577 0.1576194 0.13301322 0.1339062 -0.014896869 -0.100691214 -0.18212266 0.14035243 -0.010213762 0.15864073 -0.24449219 0.15909903 -0.11454652 -0.05215567 0.25034964 -0.06686878 0.2963453 0.11804993 0.014704976 -0.03431815 -0.09783048 -0.033498283 -0.093693376 0.062723234 -0.15356278 0.26611635 -0.073933944 -0.0808725 0.056942116 0.1987663 0.1593311 0.11654423 0.19374454 -0.011537552 -0.020781562 0.11058193 0.19963744 0.1432929 0.10650798 -0.24813473 0.071653165 -0.019317036
сообщать -0.16710663 -0.014587609 -0.022430053 -0.00933916 0.057268757 -0.31149507 0.061808012 0.33432963 -0.207139 -0.0645969 -0.108475566 -0.21361421 -0.1389481 0.10830063 0.0548746 -0.15831748 -0.014115644 -0.10753833 -0.10329654 -0.09778023 0.04759492 0.026640935 0.07530678 0.018527137 -0.07937981 -0.009192404 0.0063841823 -0.05485931 -0.09680962 -0.12554713 0.34964964 0.11427807 0.049463708 -0.082908854 -0.044335995 0.18421715 0.10020898 -0.14527267 -0.15999536 -0.25944126 -0.009549697 -0.18079165 -0.1320252 -0.05865932 0.110847674 -0.0113486 -0.022500236 0.0672874 0.10049068 0.022607526 0.0027075033 -0.23061989 -0.00048228062 -0.06513299 -0.265364 0.09529149 0.1034058 -0.11110001 -0.15621148 0.15216069 0.09356088 0.09899962 -0.043845214 -0.11842389 -0.17788681 0.14910066 -0.0023951079 0.14829251 -0.2677847 0.21018049 -0.13180564 -0.053124543 0.24919313 -0.08937552 0.34438753 0.13058718 0.025060922 -0.00996439 -0.04620381 -0.07197597 -0.104975805 0.0064354665 -0.15010619 0.25052717 -0.09557308 -0.09617632 0.07789065 0.1876093 0.1269002 0.12400158 0.26212686 -0.023117876 0.004029537 0.12029523 0.16520649 0.14872286 0.09976127 -0.23575202 0.088560134 -0.003737201
российский -0.12830703 0.015751027 0.0119160665 -0.009011862 0.0056562033 -0.38042375 0.042438835 0.32727826 -0.1718747 -0.14884362 -0.14597699 -0.24127154 -0.15940778 0.075459085 0.03885459 -0.17524306 0.02353091 -0.13463193 -0.114204615 -0.07017085 0.064915866 0.04773699 0.03979751 0.011803688 -0.04619704 -0.0035346122 -0.034465913 -0.081939965 -0.059447207 -0.09990604 0.31088963 0.07042673 0.030858533 -0.09693815 -0.09607463 0.24153528 0.12037457 -0.14568588 -0.09128825 -0.30867556 -0.015041297 -0.14988503 -0.10658872 -0.09862639 0.07957111 -0.0007925743 -0.079992376 0.10185646 0.09133531 0.0614729 -0.0076135406 -0.26219943 -0.014233411 -0.008009202 -0.27266264 0.1445821 0.16849305 -0.13380675 -0.14427553 0.19769722 0.119909056 0.09207045 -0.0038119876 -0.09140656 -0.18856762 0.17842984 0.0016141918 0.11139874 -0.21846564 0.17166682 -0.10045028 -0.022322046 0.32374132 -0.06031006 0.31041405 0.15941484 0.027481878 -0.03271927 -0.08336473 -0.06956343 -0.077882156 0.054600183 -0.1204852 0.19877374 -0.038606767 -0.09370368 0.03130713 0.21494412 0.17799167 0.17245646 0.23044811 0.013892719 -0.017313061 0.10120047 0.12828775 0.1413345 0.046954658 -0.20400791 0.053945255 0.013531338
время -0.12011073 0.004014207 0.0036421379 0.0024813982 0.03766673 -0.3969022 0.06599812 0.31035626 -0.13484475 -0.15645339 -0.11594792 -0.23931248 -0.17381538 0.115094945 0.048938178 -0.15283693 0.05244195 -0.09494954 -0.10032875 -0.08817925 0.09698253 0.04865836 0.054856315 -0.017119376 -0.026070582 0.01921492 -0.059734456 -0.11901486 -0.066437274 -0.10948737 0.3392065 0.11966806 0.039251823 -0.075922795 -0.11614827 0.20767066 0.06887081 -0.15446122 -0.09204307 -0.31457373 -0.028785579 -0.12783359 -0.08866088 -0.13184133 0.10032341 0.0024072789 -0.09505655 0.05384363 0.08148412 0.08402627 -0.0026755102 -0.25371128 -0.055702556 -0.013480719 -0.24081323 0.12693003 0.14030534 -0.138722 -0.14498636 0.18577051 0.08124207 0.10807372 -0.012138114 -0.06707083 -0.2143041 0.1806502 -0.017795201 0.06489091 -0.22068875 0.1686681 -0.10354668 -0.0041836184 0.2899112 -0.08184542 0.29200244 0.12018245 0.04725056 -0.021591015 -0.10197463 -0.039595347 -0.07678925 0.034445446 -0.13765535 0.24087739 0.003433975 -0.065714955 0.056205448 0.18204437 0.17720905 0.15102458 0.19525945 0.007580791 -0.0053739604 0.076389536 0.11145474 0.14319597 0.0834215 -0.19598146 0.047159612 0.047619116
заявлять -0.098889165 -0.0006182254 0.008521765 0.052851174 0.0007976745 -0.37281495 0.03886988 0.3143068 -0.19884034 -0.13306357 -0.10443865 -0.2253677 -0.1295198 0.10033292 0.032605093 -0.15453412 0.022865161 -0.11672084 -0.14510033 -0.0530352 0.03495037 0.062563404 0.04432673 -0.0018753313 -0.048288535 0.01430304 -0.03557048 -0.0060714916 -0.06769536 -0.10469727 0.3052155 0.06636055 0.0630089 -0.060351174 -0.106960885 0.2339423 0.12417789 -0.1721558 -0.12969951 -0.3071953 -0.044129603 -0.11383539 -0.042771395 -0.04989759 0.07655863 0.0019878307 -0.08573851 0.0878517 0.08878558 0.044764355 -0.0446454 -0.26515797 -0.01860052 -0.01923332 -0.26518133 0.17340325 0.12655486 -0.120208874 -0.14271906 0.19568616 0.14635497 0.09282957 -0.012290342 -0.07335758 -0.22575377 0.17177713 -0.010725331 0.1687577 -0.21313728 0.21887349 -0.08877383 -0.045839146 0.31585804 -0.067204915 0.33709648 0.16599487 0.046104375 -0.047547504 -0.085680775 -0.10540823 -0.09794051 0.07982606 -0.16304423 0.23448858 -0.056943998 -0.085543 0.02447204 0.18875827 0.20026475 0.17370819 0.21862198 -0.031756867 -0.03720543 0.14837715 0.1397393 0.12710996 0.057366386 -0.19595613 0.055492293 0.004913948
слово -0.1456351 0.022571791 0.009277085 0.019227302 0.040669877 -0.38172793 0.060392246 0.3027194 -0.16302478 -0.13803315 -0.1067241 -0.2534467 -0.14350705 0.09671537 0.055103444 -0.14566167 0.018539647 -0.12478564 -0.11508942 -0.071673974 0.08350479 0.070474535 0.051193047 -0.016519707 -0.035902467 0.023902444 -0.042028688 -0.08164845 -0.060760733 -0.12776802 0.32420802 0.084772095 0.060302127 -0.060419306 -0.10195845 0.22477457 0.113700375 -0.12906341 -0.09992886 -0.3071792 -0.033496108 -0.11241661 -0.09411752 -0.10403659 0.08921186 -0.0077488483 -0.0824604 0.08935781 0.0781043 0.044235073 -0.023776034 -0.23965083 -0.031409096 -0.022635901 -0.23306642 0.13300174 0.1436348 -0.12418384 -0.12081745 0.18851635 0.07186879 0.0975672 -0.021513833 -0.07539063 -0.21378967 0.16970758 -0.013881898 0.10203761 -0.22705665 0.19369069 -0.121268794 -0.03803715 0.31089962 -0.07645016 0.2920375 0.13659175 0.031406738 -0.050773975 -0.083858654 -0.08158358 -0.103456475 0.03612136 -0.110665604 0.23345894 -0.004553763 -0.0570198 0.04980252 0.18906043 0.18179375 0.16541654 0.21493728 -0.00790335 -9.53628e-05 0.09507608 0.12467852 0.14366962 0.060419746 -0.17585304 0.06407754 0.029883444
человек -0.13670203 0.028968548 0.038398787 0.006262994 0.07846275 -0.42035365 0.055214617 0.30936387 -0.12991986 -0.20374984 -0.14256208 -0.28655145 -0.18078533 0.07728042 0.05612522 -0.12635703 0.08915606 -0.15927021 -0.03188925 -0.13098986 0.16124077 0.0777668 0.0055411523 -0.020123303 -0.054142307 0.06060509 -0.0795863 -0.10202282 -0.048783213 -0.07489702 0.28024596 0.12223124 0.02503139 -0.112477064 -0.1256551 0.21895844 0.12108009 -0.10785312 -0.09113708 -0.22271422 -0.012942351 -0.16526064 -0.1599016 -0.14674415 0.13727657 -0.009804781 -0.113014914 0.090297855 0.11903705 0.088301286 0.034102347 -0.20879982 -0.0038756076 -0.009560306 -0.21759447 0.09625325 0.12919976 -0.12700105 -0.09481363 0.24171993 -0.009612273 0.069506586 -0.027143175 -0.045331527 -0.14728509 0.173519 0.014937185 0.03511994 -0.20810656 0.14575925 -0.1175268 -0.050626993 0.3287892 -0.100752704 0.24961561 0.10080516 0.0643779 -0.0334207 -0.033262897 -0.054792855 -0.14236294 0.037765488 -0.0699251 0.19888365 0.05446611 -0.09148175 0.088615745 0.24422683 0.24173087 0.13955751 0.23525035 0.041052263 0.04419447 0.08561778 0.0596941 0.12041687 0.04552451 -0.140309 0.06449989 0.10001438
становиться -0.1287043 0.013726094 0.035087865 -0.02677788 0.03761439 -0.41034228 0.035613287 0.32563215 -0.1506135 -0.1738863 -0.12530524 -0.26237062 -0.14825779 0.07835742 0.06755561 -0.14215465 0.062547274 -0.13029772 -0.068794005 -0.10502678 0.11023458 0.063772835 0.041176293 -0.028921796 -0.05837791 0.057039678 -0.063411385 -0.10715928 -0.04527588 -0.07552493 0.2767982 0.10422469 0.03307303 -0.09228779 -0.08500616 0.22043927 0.09557131 -0.13455763 -0.101578325 -0.2732083 -0.030739538 -0.15855199 -0.14028965 -0.108319014 0.11072394 -0.027465725 -0.099085 0.066402346 0.08845089 0.059879165 0.008381128 -0.24138078 -0.037177216 -0.020620024 -0.21965142 0.12594019 0.13976678 -0.117966235 -0.10645715 0.23177361 0.042951528 0.07465345 -0.029520262 -0.050966155 -0.17400593 0.18486524 -0.014911404 0.062380284 -0.2074979 0.16708308 -0.10214027 -0.025983578 0.28794923 -0.06851803 0.27323094 0.13715088 0.045980234 -0.052360374 -0.0777787 -0.045143973 -0.11719052 0.060009006 -0.087709494 0.22395279 0.0027935174 -0.07424148 0.060960785 0.22637078 0.2120182 0.1497239 0.24467075 0.009974883 0.013381435 0.07932801 0.069049954 0.13195412 0.081308946 -0.18310556 0.06566257 0.05741278
президент 0.0036529177 0.041771896 -0.054431543 0.1711856 -0.046298105 -0.3566397 0.0066707046 0.38842642 -0.3181985 -0.09994128 -0.06951963 -0.20038866 -0.08501265 0.10254699 0.0028981022 -0.2071003 0.043110926 -0.10010667 -0.22502714 -0.027778273 -0.041497767 0.008995462 0.08718919 0.038197454 -0.034311835 -0.030897604 -0.06874748 0.1657708 -0.04779646 -0.10865626 0.26356295 -0.07259122 0.07119757 -0.024667915 -0.11583462 0.26874533 0.17402518 -0.28743872 -0.19019271 -0.41864026 -0.15004362 -0.11215545 0.058900677 0.08423464 0.0042585675 0.019704156 -0.046661627 0.068811074 0.043637816 0.058721446 -0.050387297 -0.3286141 -0.044233564 -0.03610779 -0.30737084 0.1687109 0.12042062 -0.14232336 -0.1716309 0.15578075 0.25800616 0.022325622 0.06953391 -0.036765207 -0.31761253 0.1716011 0.12883079 0.36329433 -0.21425109 0.34017792 -0.10603305 0.005977711 0.33115092 0.005625585 0.38818377 0.2646812 0.014563441 -0.022804776 -0.12493943 -0.14131926 -0.05434483 0.21853562 -0.20204861 0.19043611 -0.09044132 -0.21969686 -0.06626329 0.09727013 0.23478627 0.23405242 0.2558478 -0.010666952 -0.08664934 0.22726294 0.27615586 0.12741353 0.078398086 -0.18113992 0.005203706 -0.023800517
процент -0.12744103 0.033249546 0.14668761 -0.041655492 0.14612095 -0.42952713 0.014606941 0.3812464 -0.09628512 -0.28945833 -0.22873333 -0.37327093 -0.18413436 0.012117697 0.047668904 -0.17770319 0.20785075 -0.14808768 0.07463011 -0.1866385 0.21871771 0.09671292 0.0018443645 -0.0063030305 -0.09295632 0.19682217 -0.1581659 -0.090477765 -0.048045117 0.07313328 0.14928505 0.12715437 -0.040043168 -0.2133191 -0.122990295 0.22194777 0.09612552 -0.14803384 -0.065743774 -0.15570933 -0.047816392 -0.20406228 -0.25205094 -0.18844697 0.19849627 -0.11289726 -0.13562772 0.035842698 0.11007135 0.06895928 0.12671068 -0.2339455 0.04041055 -0.054054957 -0.20948468 0.0058972873 0.11744513 -0.09222012 -0.011355017 0.33864346 -0.14728673 -0.079889454 0.01595705 0.04258176 -0.09555611 0.22327581 0.09294403 0.012502261 -0.23855756 0.15991218 -0.10538379 -0.05993915 0.35562253 -0.098973766 0.16073842 0.10460705 0.056793295 -0.06414628 -0.014649012 -0.07674916 -0.25170988 0.07517264 0.02260127 0.14075519 0.11843915 -0.1534152 0.19349429 0.28451222 0.27047825 0.12031834 0.30582112 0.05823249 0.10237557 0.0015817629 -0.00801097 0.13989994 0.113088995 -0.107131325 0.06305922 0.19845694
мочь -0.15455611 0.043346073 0.02440576 -0.013996799 0.043927595 -0.41863552 0.042325947 0.30338463 -0.13893273 -0.18857573 -0.14528713 -0.26715612 -0.17963096 0.076821394 0.0643596 -0.13689573 0.081675366 -0.12974638 -0.063699566 -0.11801811 0.14596646 0.076034084 0.03037311 -0.009909464 -0.050050754 0.06961154 -0.07475751 -0.11626131 -0.048288587 -0.07218564 0.2852235 0.11717157 0.030852702 -0.11809957 -0.094229385 0.20636593 0.095830284 -0.1203216 -0.08570026 -0.26045406 -0.022588769 -0.17543185 -0.13602194 -0.120932035 0.13479918 -0.028618088 -0.10846272 0.07272775 0.11149114 0.061646394 0.021529255 -0.2184524 -0.024043951 -0.010145352 -0.23004486 0.12598002 0.15361951 -0.11613737 -0.111087434 0.24133332 0.032783322 0.07686248 -0.03870622 -0.03431671 -0.14208281 0.17944768 0.021230157 0.06070645 -0.19777799 0.16939776 -0.1182826 -0.046456177 0.31198242 -0.07584964 0.2723015 0.13885854 0.052291706 -0.030615844 -0.05011948 -0.06599349 -0.13174619 0.044531193 -0.06477229 0.21060883 0.043564014 -0.0791482 0.08797678 0.24396034 0.22489849 0.13642949 0.25611454 0.020617232 0.026411137 0.074125424 0.051447075 0.12449 0.07990591 -0.16338469 0.045733463 0.087323554
рубль -0.07042098 0.23361672 0.24916318 0.006065856 0.30185142 -0.5874045 0.11086078 0.37110323 -0.08237617 -0.5303954 -0.28448904 -0.58964235 -0.24554104 -0.08391594 0.1337093 -0.071814984 0.412283 -0.29647908 0.22560823 -0.3942897 0.543013 0.16779935 -0.11659734 -0.0056229876 -0.26679352 0.3658035 -0.1776899 -0.20389484 0.09161247 0.14986274 -0.046817385 0.19708732 -0.14825048 -0.4118383 -0.14126314 0.32839748 0.37578702 -0.016267367 -0.15861568 0.121601105 0.058532707 -0.5150833 -0.4165929 -0.2982127 0.47212473 -0.030220665 -0.29547462 0.11535402 0.2908812 0.10039174 0.25306466 -0.16803293 0.1729462 -0.08423282 -0.27168095 -0.040883508 0.15755835 -0.174643 0.015979746 0.5063793 -0.4070089 -0.23248792 0.0037074885 0.14203198 0.13877049 0.23849438 0.14697593 -0.030153394 -0.2161621 0.10194304 -0.20568371 -0.22091895 0.577909 -0.033034507 0.027153239 0.015813619 0.18721482 0.042042058 0.17230967 -0.068941936 -0.43244505 0.022869669 0.21513467 -0.08198046 0.33952063 -0.2385796 0.4498604 0.51627654 0.49432024 0.055716965 0.51219505 0.1931912 0.17688483 0.11098964 -0.2970221 0.082479484 0.032943584 0.008106512 -0.034589935 0.4133702
сша -0.11275199 0.029237926 -0.016599998 0.066332266 0.006492352 -0.3960722 0.020965694 0.329443 -0.20326492 -0.1175689 -0.120893545 -0.25867245 -0.15608877 0.095557526 0.012846531 -0.17712572 0.051252462 -0.11273003 -0.12867996 -0.04196494 0.059587017 0.0758594 0.026757916 0.0061968276 -0.043533392 0.024980258 -0.050242838 -0.0003188113 -0.047300253 -0.10457524 0.2754143 0.047208104 0.028972859 -0.04756377 -0.13206053 0.2533701 0.13936539 -0.21633263 -0.14390486 -0.29270607 -0.039489485 -0.14711352 -0.08510624 -0.03966949 0.09439162 0.009516596 -0.11535058 0.036926564 0.09095509 0.046399046 -0.02267426 -0.26002157 -0.010697611 -0.0046909307 -0.25645918 0.16480313 0.16860327 -0.12201108 -0.11206044 0.2037395 0.15644102 0.05262825 0.015822683 -0.064747825 -0.18471576 0.15993801 0.024475344 0.17425641 -0.19732179 0.24834056 -0.109438285 -0.024771841 0.30989373 -0.049552787 0.32084593 0.17619562 0.031135008 -0.04799279 -0.10271365 -0.092009254 -0.12614833 0.084719926 -0.15498064 0.2143548 -0.03518646 -0.12563972 -0.0021701413 0.16327654 0.23410478 0.18925801 0.21673436 -9.743189e-05 -0.02177134 0.09783121 0.13168208 0.15921068 0.082032755 -0.15425888 0.06647999 0.048648253
страна -0.11885672 0.0013337496 0.027683726 0.012873319 0.056519836 -0.39528292 0.038944874 0.33038768 -0.15652055 -0.16100395 -0.13454342 -0.26792717 -0.17297271 0.0917703 0.026694704 -0.13844696 0.039671108 -0.1337627 -0.09011419 -0.09012171 0.10650666 0.07347063 0.034524098 -0.0011442279 -0.04192433 0.051428325 -0.043926094 -0.08429306 -0.063337766 -0.0912422 0.28998944 0.08602427 0.033514407 -0.09822554 -0.106646314 0.23871179 0.11354079 -0.15203302 -0.11487983 -0.2914887 -0.027832735 -0.1548135 -0.12741305 -0.09212761 0.11229658 -0.008286367 -0.10655559 0.07155598 0.10309325 0.06306113 -0.007490236 -0.25542665 -0.018672984 -0.008435492 -0.23746221 0.13658316 0.13043469 -0.13590252 -0.11661503 0.22301939 0.08207831 0.08408878 -0.015808843 -0.058929652 -0.1775056 0.17793864 -0.0042498293 0.109715275 -0.20012234 0.1988751 -0.095564045 -0.023703102 0.31582877 -0.07437201 0.30217305 0.12144187 0.054762166 -0.052560955 -0.056727026 -0.076697975 -0.12348757 0.04788834 -0.11885255 0.2005076 -0.013888931 -0.081761226 0.0440655 0.20150651 0.20416526 0.145424 0.23789965 0.013000555 0.011496021 0.10799507 0.08246095 0.14671905 0.050158232 -0.17734295 0.04609426 0.066545784
тысяча -0.09618944 0.20246656 0.21783538 0.021721482 0.2532907 -0.5428537 0.06901972 0.35499108 -0.1382642 -0.44576904 -0.26277524 -0.498534 -0.14325549 -0.039088946 0.16558494 -0.13771594 0.29663378 -0.23149009 0.20558329 -0.3248537 0.43270925 0.1192322 -0.10872748 -0.019948838 -0.20704351 0.28018618 -0.13950677 -0.17998219 0.048697703 0.11868281 -0.0026386783 0.1651668 -0.14454605 -0.34730318 -0.11032105 0.32194903 0.2538869 -0.038471207 -0.09969022 -0.002801228 0.07257637 -0.4675595 -0.3506098 -0.25330028 0.34597147 -0.0715389 -0.25413388 0.081171125 0.21028343 0.06116948 0.23120992 -0.15408486 0.11328743 -0.039200712 -0.18637365 0.011130305 0.14707789 -0.17224701 -0.012976583 0.40639207 -0.33077735 -0.18352605 -0.040786628 0.099319525 0.08834242 0.2005294 0.11436055 -0.027454566 -0.16229866 0.08635154 -0.15938981 -0.17701475 0.46834296 -0.03186311 0.09091515 0.06584893 0.1422575 0.049235713 0.13683869 -0.043788675 -0.34745243 0.078734934 0.17840332 -0.033621732 0.27432877 -0.1719526 0.3643835 0.41715094 0.42940396 0.09266345 0.4336624 0.15357085 0.13128796 0.08499721 -0.18238945 0.13858788 0.032311454 -0.05321204 0.0018154656 0.31093678
украина -0.07047039 -0.024409091 0.0015863484 0.08672289 0.032608666 -0.38668677 0.037797473 0.3394316 -0.20663916 -0.15204129 -0.11209652 -0.2415311 -0.12827757 0.1171937 0.05907052 -0.15624277 0.0117578525 -0.106647395 -0.11416774 -0.0048175203 0.071162194 0.027865581 0.011611906 0.0046026977 -0.025170391 -0.012285196 -0.050569616 0.022292176 -0.03754608 -0.1362095 0.33828306 0.07623148 0.0821258 -0.08223568 -0.116818495 0.24699111 0.18479764 -0.14063223 -0.10686919 -0.3028663 -0.040817425 -0.12851661 0.0031441292 -0.059108682 0.024322694 0.019017976 -0.0917534 0.13966647 0.11754283 0.032836273 -0.053546198 -0.29775605 -0.008721773 -0.025340853 -0.26352298 0.19632591 0.116731055 -0.14355783 -0.09560335 0.24205408 0.14504884 0.10936202 0.038013276 -0.061112836 -0.24112341 0.14689197 0.03187463 0.19211778 -0.20673858 0.22178869 -0.07417672 -0.09750525 0.34973133 -0.06601943 0.3980872 0.1531856 0.043528255 -0.020509573 -0.08227879 -0.12841853 -0.10255763 0.106914066 -0.14784615 0.23876509 -0.05900539 -0.07341578 0.01321423 0.16313185 0.1592868 0.13815403 0.22349612 -0.023945594 -0.00930355 0.19260596 0.12665333 0.11862958 0.022020789 -0.20083462 0.014643558 0.016979527
отмечать -0.12288358 0.0077484986 0.022747919 0.012763296 0.018702103 -0.38640344 0.05007552 0.31357056 -0.14700048 -0.15785965 -0.12987445 -0.24609745 -0.15354715 0.09569739 0.043668907 -0.15005133 0.03558267 -0.13738674 -0.11058787 -0.067990325 0.07624702 0.06792121 0.021115512 -0.011528764 -0.0565306 0.03175339 -0.048529692 -0.08928085 -0.061026007 -0.09435571 0.32058635 0.08744355 0.058297843 -0.07883481 -0.12073652 0.23830344 0.09241864 -0.15407935 -0.10569599 -0.30055273 -0.03628591 -0.104183 -0.08498394 -0.09997905 0.087874055 -0.017271398 -0.09075689 0.07507071 0.09034798 0.06212923 -0.028686667 -0.25279373 -0.04223144 -0.01586487 -0.23678008 0.15350367 0.14463337 -0.1201512 -0.109937124 0.20991197 0.08226216 0.09669566 -0.025527777 -0.086994015 -0.20702699 0.18150903 -0.021678386 0.08541117 -0.22425337 0.19013944 -0.10332939 -0.03142832 0.31313467 -0.09288371 0.31169713 0.146261 0.051578738 -0.043171953 -0.08051019 -0.08545977 -0.10834458 0.057324875 -0.11534373 0.23671846 -0.00708117 -0.06616878 0.03353543 0.2004243 0.1850902 0.151006 0.21548362 -0.0109286485 -0.010713984 0.103057966 0.09072292 0.123029314 0.046501998 -0.18224481 0.06947129 0.050161626
компания -0.13565171 0.010622803 0.0335052 0.0155243175 0.050226685 -0.38241786 0.040554192 0.32850268 -0.13656996 -0.16898382 -0.12813118 -0.26468667 -0.14559188 0.08635832 0.062345088 -0.15814011 0.030186439 -0.12964553 -0.08734257 -0.086925805 0.107578255 0.062002573 -0.0061645024 -0.0009520936 -0.06328419 0.016182508 -0.04343436 -0.0838163 -0.06375282 -0.09825553 0.29510042 0.08825509 0.046105936 -0.102563955 -0.10950394 0.244698 0.1254579 -0.117424935 -0.09095534 -0.25197676 -0.025946852 -0.15007058 -0.11429972 -0.106694326 0.10474254 -0.028449256 -0.104456514 0.08887196 0.10239025 0.056331445 0.016370386 -0.2544551 -0.013158395 -0.011599795 -0.24830529 0.13783863 0.14528099 -0.12012766 -0.12877329 0.22599055 0.039974015 0.096924104 -0.022149295 -0.08664028 -0.19806565 0.19139132 -0.0084441975 0.06864687 -0.20448308 0.1669322 -0.09770768 -0.06736348 0.29745185 -0.094903715 0.31625038 0.15199046 0.04770696 -0.035981175 -0.06383973 -0.08064496 -0.13034534 0.07338286 -0.11212488 0.2004391 -0.013926269 -0.041973405 0.06267317 0.21570273 0.18432271 0.16637486 0.2180076 -0.0049824016 0.00622609 0.12132912 0.0842054 0.11803883 0.053056683 -0.18494396 0.031991284 0.04915178
сказать -0.11809085 0.022648636 0.029219802 0.032558437 0.011580008 -0.38417763 0.03261499 0.31466028 -0.16344641 -0.14457776 -0.11083968 -0.23833883 -0.14069776 0.11005598 0.026614072 -0.16038017 0.028212154 -0.13249399 -0.11432859 -0.054110724 0.06598581 0.043560777 0.039025575 0.0026536335 -0.035252143 0.029132878 -0.04903534 -0.04356301 -0.056338727 -0.111471765 0.31522554 0.0744788 0.06509412 -0.07888964 -0.098361395 0.21026005 0.117600545 -0.15768678 -0.104908936 -0.31437024 -0.04852154 -0.11510365 -0.07814768 -0.09828107 0.06671771 -0.012000205 -0.07913534 0.08238771 0.071299516 0.05630074 -0.014095531 -0.24581908 -0.046065047 -0.0028316597 -0.25141793 0.13569508 0.13663799 -0.13859266 -0.14543395 0.195685 0.09088167 0.10201601 -0.027357562 -0.052385867 -0.21556866 0.16594611 0.01989099 0.1136543 -0.20403093 0.20993894 -0.10071472 -0.022318695 0.31499723 -0.07347241 0.31597474 0.14484844 0.041956387 -0.030960985 -0.06599161 -0.0737065 -0.097495176 0.06276244 -0.10502644 0.22181351 -0.02751887 -0.06974612 0.048251044 0.19610262 0.18546985 0.17895521 0.23122601 -0.01760124 -0.012940782 0.111276135 0.10604474 0.13074523 0.05006368 -0.16788661 0.036787797 0.04139998
миллион -0.09300932 0.20272712 0.22697571 0.069056034 0.24619111 -0.5746239 0.050381504 0.3516124 -0.15517749 -0.46637252 -0.27854544 -0.53559756 -0.17028344 -0.03140368 0.17958194 -0.100392394 0.30313408 -0.24043456 0.20616102 -0.3392019 0.4720004 0.1453325 -0.111728765 0.014736152 -0.20493242 0.3402917 -0.15506846 -0.15894184 0.07763474 0.12722793 -0.020564524 0.18097967 -0.163519 -0.38784182 -0.10743357 0.3349868 0.31364813 -0.040746663 -0.15937671 0.055549946 0.06587906 -0.48888382 -0.4128553 -0.29050824 0.3787589 -0.07067544 -0.2595748 0.08733692 0.22142085 0.0516458 0.23345992 -0.20391275 0.09508061 -0.020982817 -0.21450785 0.027049525 0.113271594 -0.20675872 -0.0071649174 0.43254295 -0.34312704 -0.20536342 -0.0032779777 0.13501021 0.12701255 0.20637119 0.12306323 -0.028765893 -0.19270535 0.12808 -0.20867048 -0.15578693 0.5006546 -0.053584125 0.039090328 0.07883448 0.10881306 0.03799173 0.1422201 -0.041996956 -0.3750173 0.046665434 0.21552572 -0.057305783 0.2845213 -0.19784006 0.38462108 0.45238551 0.46578777 0.09447208 0.44156453 0.15183297 0.11365597 0.11184119 -0.23152773 0.10168935 0.06088947 -0.033599973 -0.0023256026 0.3538836
новый -0.13239041 -0.01757101 0.05153499 0.0042385524 0.02200848 -0.3901757 0.021381883 0.31384608 -0.15039285 -0.16834609 -0.12594499 -0.25176114 -0.15232813 0.11239863 0.07077806 -0.13578275 0.02935815 -0.15073381 -0.08559695 -0.059264865 0.096926786 0.05670258 0.02666764 -0.024789058 -0.059503455 0.034442257 -0.049026344 -0.058050092 -0.040400837 -0.1175948 0.33934706 0.09243718 0.05442728 -0.09708242 -0.11168217 0.22090426 0.14810878 -0.11067112 -0.11266326 -0.2580977 -0.007890069 -0.10547814 -0.060319975 -0.13003092 0.084424846 -0.012889537 -0.08908507 0.11977678 0.10230897 0.043660954 -0.0134538915 -0.24890599 -0.015882656 0.007811768 -0.24781872 0.16856138 0.13702428 -0.11301426 -0.1202811 0.22967209 0.070746236 0.10810767 -0.036754724 -0.07103987 -0.20742692 0.1629831 -0.006618253 0.07740657 -0.19706854 0.19104819 -0.10674282 -0.05738144 0.31547993 -0.10108302 0.34675667 0.13648641 0.058245134 -0.031256016 -0.057859655 -0.08813955 -0.10364425 0.06774378 -0.10699636 0.23183785 -0.020251915 -0.042817164 0.034261715 0.22563842 0.16532637 0.16857511 0.20706539 -0.027255053 -0.013590528 0.10580687 0.07899254 0.12551306 0.051689893 -0.18033001 0.038410462 0.049031626
глава -0.13939363 -0.014778271 0.0151309315 0.030286185 -0.011485304 -0.39126801 0.04472397 0.33967423 -0.20075585 -0.15840542 -0.09152123 -0.22267719 -0.14822955 0.11713912 0.020735366 -0.14112052 0.020328915 -0.09430815 -0.17971404 -0.03673325 -0.0072527034 0.043565623 0.0211586 0.03853469 -0.055757616 -0.01874909 -0.0025198911 -0.038404875 -0.05509775 -0.1539095 0.37262863 0.08733658 0.09568523 -0.03701862 -0.09207711 0.23385952 0.17821662 -0.17176004 -0.09664423 -0.30511633 -0.06446872 -0.10222988 0.005326058 -0.075344056 0.05965032 -0.00062181015 -0.027727677 0.10978838 0.10598523 0.011350582 -0.03824085 -0.22016436 -0.024016524 0.0078734765 -0.24142095 0.19136831 0.14143372 -0.11522591 -0.14416091 0.21077311 0.1379771 0.11985324 -0.031705707 -0.11215799 -0.23129058 0.1579553 -0.038218938 0.10349376 -0.20565227 0.23091555 -0.11472477 -0.095207356 0.34056327 -0.0728098 0.37534782 0.17777781 0.07268911 -0.009795922 -0.06472794 -0.117231995 -0.06028783 0.08946566 -0.1566999 0.26763746 -0.06428546 -0.039768413 0.014692891 0.19462076 0.17748985 0.19904383 0.21488546 -0.07385672 -0.015043284 0.15660311 0.15014797 0.08016609 0.08487931 -0.22662626 0.054671906 -0.031766914
сообщаться -0.11410388 0.021058694 0.024772573 -0.0085860565 0.03736125 -0.38366845 0.019128257 0.3375675 -0.1413911 -0.13042636 -0.12706587 -0.21533169 -0.13844962 0.084398426 0.03943092 -0.15392798 0.043919925 -0.10090074 -0.106264874 -0.09829373 0.063350365 0.059255783 0.03287054 -0.024913851 -0.049081974 0.015294011 -0.05228403 -0.065462865 -0.059764594 -0.07006608 0.29971397 0.0907635 0.01793636 -0.108970135 -0.096273325 0.22862652 0.111770175 -0.1406261 -0.10612897 -0.29840127 -0.031283025 -0.14955728 -0.084198914 -0.09679069 0.093793884 -0.01901862 -0.07365256 0.066242576 0.101575516 0.042084377 0.005679515 -0.25922906 -0.05432471 -0.030298276 -0.24002028 0.1332655 0.13601495 -0.112979636 -0.15050325 0.20942709 0.08837127 0.09230726 -0.022452928 -0.062187616 -0.1708683 0.18208264 0.021544194 0.08559841 -0.23758347 0.16686845 -0.13267249 -0.065632485 0.2615612 -0.08787388 0.29894114 0.13125251 0.0066801915 -0.036123507 -0.083566286 -0.043131523 -0.088367596 0.085866384 -0.12574734 0.23214148 -0.024719575 -0.060809154 0.060340077 0.21825363 0.17689626 0.15584907 0.20804752 -0.013852004 0.008003214 0.07712355 0.10428906 0.11544805 0.057349637 -0.18297336 0.040484756 0.042881176
получать -0.13226609 0.03496454 0.061081853 -8.501575e-05 0.09830425 -0.40033373 0.06583164 0.30070958 -0.1374054 -0.19883981 -0.1628123 -0.28189075 -0.15878166 0.060090348 0.07243821 -0.13433222 0.09429976 -0.1551821 -0.026332783 -0.13296561 0.19246975 0.065354645 0.010491628 -0.025008854 -0.08843085 0.06656797 -0.076413125 -0.108570196 -0.034317657 -0.040545337 0.25615236 0.12692943 0.00658811 -0.13986146 -0.10536911 0.24316302 0.11917745 -0.09307249 -0.09162319 -0.19768849 0.004649456 -0.20275013 -0.17647642 -0.14688194 0.15269193 -0.027364466 -0.103107445 0.07754861 0.13670231 0.0626779 0.050030842 -0.21301444 0.007449762 -0.015526336 -0.23446904 0.10647189 0.13151368 -0.12513466 -0.10633503 0.24694669 -0.025893506 0.040199086 -0.040222418 -0.036631096 -0.12761286 0.18084553 0.023491705 0.03255407 -0.21045847 0.15201305 -0.12722631 -0.07467903 0.33785373 -0.08671419 0.23593903 0.08480588 0.07053407 -0.01349649 -0.022327332 -0.05152881 -0.1545752 0.051386464 -0.051560774 0.1815352 0.051063977 -0.08721141 0.10734207 0.26980874 0.23185344 0.12350895 0.2651906 0.017245864 0.028201561 0.07645588 0.0078119156 0.10123487 0.05769388 -0.14146481 0.052947458 0.108246304
место -0.12657356 0.025748711 0.034569778 -0.0067248675 0.08467754 -0.4081737 0.05450991 0.29121298 -0.11169506 -0.16639711 -0.11348606 -0.27565458 -0.17266612 0.08634054 0.046528634 -0.16139847 0.061412476 -0.1410276 -0.07148721 -0.070862755 0.0973609 0.07905063 0.020898525 -0.0037500723 -0.053089246 0.03936383 -0.067828275 -0.10726953 -0.070235275 -0.08579712 0.31605425 0.08939236 0.019527046 -0.11762118 -0.12372542 0.1848736 0.09260492 -0.09579255 -0.06891019 -0.2708263 -0.055096895 -0.14187442 -0.14959419 -0.1374707 0.09847958 -0.020854857 -0.10955528 0.07474234 0.10391983 0.08042847 0.019414436 -0.25698483 -0.02109697 -0.026266972 -0.20504454 0.11504835 0.151313 -0.1181283 -0.116907544 0.23360658 0.0073575205 0.076203965 -0.036652304 -0.06148909 -0.17766182 0.17425863 -0.017650317 0.050861463 -0.22130772 0.15961115 -0.09573445 -0.031128917 0.3178207 -0.12401376 0.2510635 0.0952615 0.022103764 -0.045836877 -0.061267346 -0.07363111 -0.12358506 0.03173774 -0.07852664 0.2092421 0.047286443 -0.07360954 0.05347884 0.22834702 0.23316789 0.1348078 0.21750218 0.012419727 0.025696218 0.051886607 0.0809236 0.14521246 0.0634922 -0.17209212 0.039819993 0.06596606
рассказывать -0.11965714 0.0042066895 -0.016733373 0.013787454 0.017754672 -0.37171942 0.050936162 0.31957173 -0.16374202 -0.1134231 -0.11715561 -0.23568718 -0.13719706 0.116514735 0.02746119 -0.1418535 0.025752453 -0.12372918 -0.11227665 -0.06243329 0.061159864 0.050508134 0.057862207 0.0014085623 -0.032035325 0.0044025783 -0.040410515 -0.058046535 -0.06950181 -0.10825199 0.33326188 0.084645554 0.06448497 -0.075915374 -0.10761226 0.21887754 0.10688861 -0.16147739 -0.12096037 -0.31875557 -0.053084105 -0.110536605 -0.07616176 -0.09115951 0.091036744 -0.0016279542 -0.07735352 0.0688322 0.07344409 0.06000449 -0.038078677 -0.2553578 -0.041470006 -0.019670887 -0.23968783 0.12847961 0.13435899 -0.11156153 -0.14364016 0.1994598 0.11285222 0.089838736 -0.031957753 -0.07425518 -0.2174769 0.16529347 -0.015473756 0.111910306 -0.20718832 0.2061499 -0.106661595 -0.037933536 0.29648966 -0.075412445 0.3178248 0.13880615 0.027741283 -0.044480223 -0.09189386 -0.06844353 -0.09393869 0.05036315 -0.14489956 0.24304253 -0.04193382 -0.08770006 0.039018888 0.196543 0.18561193 0.15574326 0.22366066 -0.00035199575 -0.020454768 0.10058657 0.13442026 0.13782395 0.060466737 -0.21326211 0.079939075 0.032179173
суд -0.1523209 -0.005238493 0.012006106 -0.0047647236 0.052486 -0.39646015 0.029452927 0.3059963 -0.16151366 -0.1466566 -0.12744664 -0.2567666 -0.14899173 0.110457964 0.06976746 -0.1706352 0.040899135 -0.14765239 -0.10485798 -0.0998345 0.11391026 0.06904576 0.008504904 -0.010870281 -0.043311574 0.032931004 -0.044046056 -0.077801004 -0.055309627 -0.10707123 0.27873355 0.11996325 0.019646794 -0.098679416 -0.08198017 0.21654649 0.12316809 -0.13853803 -0.09605679 -0.23344843 -0.03294573 -0.15785852 -0.08959181 -0.11378581 0.10512852 0.0005725031 -0.107839294 0.11369417 0.08943771 0.053426716 0.009212192 -0.24903297 -0.016973823 -0.0089901965 -0.23461562 0.13659443 0.15915361 -0.092932165 -0.09395804 0.22315688 0.06686665 0.08108721 -0.018906476 -0.07333343 -0.17285898 0.17784686 -0.022598004 0.085525475 -0.23671731 0.17974207 -0.09904421 -0.041691147 0.29745743 -0.09048308 0.28537762 0.11848142 0.055632986 -0.021775315 -0.06505156 -0.055828143 -0.14037858 0.05725517 -0.13624658 0.23042285 -0.0064204107 -0.037823398 0.061252076 0.22959003 0.20229182 0.15648335 0.22805963 0.009636407 0.022372156 0.10808264 0.07870408 0.14773825 0.06362343 -0.18989187 0.03142211 0.053302024
украинский -0.10500703 -0.06245842 0.09157276 0.14348759 0.047968082 -0.3349565 0.03453274 0.28381792 -0.14803664 -0.20825754 -0.07061448 -0.30700037 -0.10811354 0.14357658 0.07536728 -0.12831093 -0.105733335 -0.16901565 -0.09213799 0.03369774 0.016022649 0.027392132 -0.09500047 0.037923135 -0.04410577 -0.0360082 0.0025886062 0.0028202967 -0.044637967 -0.24413972 0.44205156 0.108444914 0.27557138 -0.12398647 -0.15486684 0.27453122 0.33248997 -0.014471314 -0.08781523 -0.15440518 -0.018213674 -0.07331015 0.11279871 -0.1453647 -0.084056735 0.064500354 -0.03713799 0.3316259 0.14014655 -0.0010391149 -0.112078495 -0.3174076 0.06643317 0.06302048 -0.30023575 0.30659282 0.07273644 -0.22706795 -0.1776279 0.37724212 0.13267466 0.20285657 -0.012248857 -0.18488222 -0.3059802 0.04780289 -0.088411994 0.16987741 -0.20584202 0.14026058 -0.035903107 -0.24033318 0.46730384 -0.1429814 0.54625076 0.15435143 0.0957872 0.029663414 0.030389743 -0.2013606 -0.09129303 0.10036663 -0.18321279 0.2512726 -0.1986402 0.11078993 0.08441095 0.16038613 0.122246966 0.14486843 0.14211956 -0.076193266 -0.022726454 0.29228446 0.03429 0.020161077 -0.12151388 -0.2298294 -0.091967605 -0.035365894
ноябрь -0.12150167 0.0063176677 0.05034057 0.00049099844 0.05054578 -0.4262633 0.021590091 0.32084554 -0.12519746 -0.17644498 -0.14296106 -0.26590294 -0.1301462 0.06893965 0.05716932 -0.16378623 0.08687538 -0.13917501 -0.06159506 -0.10003839 0.1195086 0.070161715 0.03879124 -0.031099755 -0.036535848 0.052927155 -0.06533847 -0.07018316 -0.04259879 -0.048712324 0.2657455 0.11445513 0.0295308 -0.12707432 -0.11541353 0.25335506 0.10942623 -0.15361233 -0.10354893 -0.26324925 -0.013760375 -0.1722587 -0.10023447 -0.11631835 0.14489724 0.0037336154 -0.109424084 0.094593555 0.10663369 0.03631688 0.045088712 -0.237207 0.010992031 -0.030435236 -0.26007587 0.1341545 0.1352626 -0.08948636 -0.09945718 0.2567362 0.07575102 0.058934625 -0.02844061 -0.04264612 -0.15224046 0.16026378 0.0187161 0.09675879 -0.20856358 0.18269601 -0.11395167 -0.04406343 0.30006328 -0.063797966 0.27419525 0.13545455 0.039126668 -0.051345572 -0.057083298 -0.03860312 -0.12338303 0.061368056 -0.08572325 0.18822585 0.009428048 -0.08414695 0.07328799 0.21372803 0.23572795 0.16148716 0.24889171 0.020718997 0.0010043449 0.078063644 0.08378079 0.10769159 0.044447303 -0.17944594 0.039424706 0.05510088
ребенок -0.12847732 0.012816382 0.016880646 -0.022263274 0.062252045 -0.40586376 0.049236253 0.32907623 -0.105974354 -0.19106765 -0.1263577 -0.25420702 -0.18037869 0.087030254 0.054077134 -0.13371453 0.050593518 -0.14614584 -0.058707673 -0.11502269 0.11336312 0.06996045 0.03865967 -0.03777224 -0.038955063 0.040790018 -0.051454294 -0.09981816 -0.054427043 -0.072464466 0.292925 0.09356843 0.043245234 -0.11437719 -0.099365994 0.19676103 0.07300052 -0.13948575 -0.06589136 -0.26223487 -0.030752104 -0.16038553 -0.14463921 -0.14173862 0.12831843 -0.028691787 -0.09438196 0.07243122 0.09301173 0.08399092 0.013569135 -0.23609403 -0.022468671 -0.0016184197 -0.21439311 0.112327605 0.14785618 -0.111701995 -0.1291276 0.2465891 0.0126690045 0.09298079 -0.03563855 -0.049841356 -0.17497066 0.18438384 0.010487791 0.06921048 -0.22428904 0.17518152 -0.10382252 -0.03878839 0.31841052 -0.11000012 0.26798013 0.1049122 0.036933858 -0.038829613 -0.06145717 -0.062098056 -0.10820549 0.034948714 -0.0992334 0.22638708 0.04134845 -0.06292259 0.0717639 0.2282319 0.20867965 0.15573354 0.21805084 0.012862827 0.027314613 0.061165433 0.07536248 0.13730948 0.0862674 -0.16815223 0.07869288 0.068587266
москва -0.12808332 0.01460519 0.022943951 0.008871921 0.04702144 -0.40494144 0.03750229 0.34254926 -0.1688099 -0.17220712 -0.14835908 -0.23823246 -0.17328784 0.09327698 0.044672653 -0.14627275 0.04772043 -0.15221761 -0.07885234 -0.089219466 0.08720993 0.059716776 0.030321607 -0.0052842274 -0.046771977 0.029785488 -0.03414813 -0.09125557 -0.052983344 -0.06982491 0.2944909 0.08795678 0.026074821 -0.12106603 -0.094964676 0.23153411 0.095664315 -0.13312803 -0.097944945 -0.2755228 -0.048483778 -0.15894525 -0.12216746 -0.104390934 0.12230414 -0.0060931486 -0.094447844 0.09408924 0.090402246 0.060710013 0.014054535 -0.23220319 -0.023471622 -0.034291048 -0.2439241 0.13181455 0.1305791 -0.12597418 -0.12974632 0.21206881 0.03904717 0.07437535 -0.030770723 -0.061697535 -0.18274291 0.17771432 0.009843023 0.0946308 -0.22024053 0.17743953 -0.107863165 -0.043254275 0.29441574 -0.08233646 0.30640486 0.11959881 0.038172785 -0.03622103 -0.04524288 -0.06858698 -0.11074012 0.050298687 -0.0858671 0.19694294 0.009507692 -0.08408413 0.0794031 0.21400534 0.22168185 0.16437152 0.23308805 -0.007959457 0.01675508 0.09239938 0.073790334 0.14540201 0.0513971 -0.2073844 0.058140337 0.058787342
принимать -0.12288146 -0.039825805 -0.0052271173 -0.002877546 -0.017123591 -0.41219974 0.009178125 0.32424262 -0.14885257 -0.16509111 -0.110152975 -0.25501898 -0.11690406 0.12614092 0.054329358 -0.19900835 0.007740268 -0.12217181 -0.12445324 -0.040025488 0.118796654 0.059713125 -0.008599003 0.018179378 -0.04949813 -0.0020871137 -0.018367555 -0.07618413 -0.04917475 -0.13179514 0.2682136 0.073979236 0.071964264 -0.10759855 -0.11998064 0.23634867 0.13581021 -0.15773082 -0.100298226 -0.26715204 0.013686908 -0.13203444 -0.024162853 -0.13591339 0.060704935 0.02976669 -0.08501752 0.12584168 0.09893595 0.034243494 -0.06462887 -0.29036185 -0.008532541 -0.015625156 -0.21003452 0.16044661 0.15706454 -0.079967454 -0.09295084 0.19305047 0.12470939 0.08295425 -0.012575893 -0.08554622 -0.20663704 0.18890792 -0.0088581145 0.12925133 -0.22164603 0.19364452 -0.049099933 -0.06718077 0.3294932 -0.07062295 0.35648417 0.16180423 0.04557354 -0.03430709 -0.09117383 -0.055939265 -0.10541619 0.09681235 -0.12808847 0.26703194 0.00603562 -0.069350205 0.04703491 0.21949929 0.18350509 0.17351303 0.19399154 -0.011821703 0.018031146 0.105096884 0.064453036 0.12402434 0.01054271 -0.19317473 0.01888213 0.05583392
представитель -0.11900414 -0.027257025 0.020717954 0.026833199 0.016684916 -0.3543816 0.031505108 0.31521508 -0.18577786 -0.13450481 -0.08734801 -0.2137716 -0.13448164 0.106238104 0.05511655 -0.14702648 -0.018955622 -0.118499525 -0.11191362 -0.03397803 0.04984809 0.058586847 0.03300222 -0.010667788 -0.054639593 -0.02413726 -0.010131554 -0.03441326 -0.07143507 -0.14415385 0.34901288 0.09771158 0.082305945 -0.08240913 -0.08098022 0.22614227 0.13753514 -0.14865077 -0.12727188 -0.28649902 -0.04585988 -0.11764771 -0.048417322 -0.0806644 0.06806023 0.026863689 -0.051206455 0.117296375 0.110271834 0.03471688 -0.025109576 -0.24353085 -0.032181654 -0.020304926 -0.2548282 0.18087812 0.12140695 -0.12322449 -0.16110952 0.19754945 0.09482668 0.14455785 -0.03979209 -0.13302886 -0.22248861 0.15329285 -0.030125113 0.109050825 -0.23249377 0.18875445 -0.10369786 -0.07970568 0.31910875 -0.092542045 0.36925924 0.15527771 0.060825754 -0.046606757 -0.06785702 -0.08313605 -0.10461657 0.074343815 -0.17244712 0.26475206 -0.101243325 -0.050302595 0.034627434 0.17752074 0.17473862 0.17700809 0.21758753 -0.028481076 -0.021570716 0.15888359 0.117570974 0.114904255 0.050138082 -0.20264827 0.036249653 -0.02294038
данные -0.13109083 0.03421114 0.02706545 -0.012896875 0.06456469 -0.38945293 0.06545771 0.31966814 -0.14083637 -0.16277343 -0.13780661 -0.2860442 -0.15039717 0.07418293 0.060492422 -0.13653894 0.046405677 -0.11558449 -0.06564688 -0.11236348 0.13083786 0.045309205 0.013350468 -0.003423417 -0.08078655 0.047036782 -0.051856875 -0.10486353 -0.06018746 -0.086082146 0.28793383 0.11636084 0.045730967 -0.1351161 -0.10469493 0.23296782 0.12328114 -0.107715726 -0.12170073 -0.24114835 -0.020541117 -0.16593316 -0.13062829 -0.1299986 0.14370249 -0.030533658 -0.08785561 0.0882471 0.11137507 0.06683233 0.018045336 -0.23303778 -0.025736002 -0.038871523 -0.23284689 0.09514987 0.13168284 -0.11577667 -0.10437291 0.22364222 0.024805786 0.069421776 -0.037647363 -0.060432207 -0.1561549 0.16635288 0.0073321923 0.089293994 -0.22818278 0.16832557 -0.10578604 -0.05093406 0.30550694 -0.07898472 0.30046093 0.12406071 0.050295457 -0.04423618 -0.037291247 -0.0532415 -0.14206314 0.032717273 -0.094991885 0.20297138 0.017364696 -0.09437304 0.07202728 0.23793854 0.21391906 0.13672061 0.2331975 0.014045047 0.025819812 0.0966295 0.08603473 0.14527021 0.080175124 -0.17639278 0.061420232 0.06140386
мир -0.124605805 -0.0050075157 0.034615006 -0.01754483 0.040545106 -0.38743472 0.053140957 0.32218397 -0.13085276 -0.16186483 -0.14685334 -0.2553949 -0.1768162 0.07927049 0.05323818 -0.13740852 0.046108574 -0.10262837 -0.09162024 -0.08220422 0.08037169 0.07355271 0.026817933 -0.030048242 -0.031571753 0.058885414 -0.06635247 -0.11214765 -0.078716084 -0.091492526 0.30971634 0.107982345 0.057643898 -0.11462786 -0.12845443 0.2259688 0.06471326 -0.17234395 -0.10541979 -0.29601446 -0.038219668 -0.13407135 -0.11589428 -0.12082316 0.11717379 -0.02825469 -0.06415016 0.06974216 0.08512189 0.078538954 0.006044541 -0.2519073 -0.043228514 -0.028019324 -0.2628396 0.12523592 0.1317099 -0.12489973 -0.13158043 0.20625566 0.093377836 0.10850926 -0.025293099 -0.052760385 -0.21613026 0.19834113 -0.012179952 0.061031338 -0.22609952 0.15632357 -0.12164953 -0.016308574 0.30107644 -0.11215099 0.3032165 0.16687703 0.020511953 -0.024305042 -0.10481378 -0.029616864 -0.0753164 0.05344788 -0.13845211 0.21103702 0.012047182 -0.056905735 0.068590336 0.19420858 0.17573287 0.12539631 0.20673262 0.0055464865 0.010096006 0.071791075 0.1151588 0.12708233 0.07713631 -0.17547512 0.04317298 0.038911227
происходить -0.15935008 0.0054926192 -0.00051183783 0.007876494 0.0559803 -0.38241887 0.04784942 0.31447363 -0.12953964 -0.12549959 -0.13717504 -0.24723776 -0.15941471 0.10049102 0.031497132 -0.18803805 0.0053690313 -0.09478056 -0.083836965 -0.072690986 0.11681095 0.030194394 0.059265427 -0.0027245064 -0.027250305 0.008403779 -0.0053691436 -0.099611424 -0.043163687 -0.083310775 0.31258002 0.12980919 0.05689838 -0.07869848 -0.066208154 0.20860977 0.096190654 -0.117188305 -0.08881598 -0.28570506 -0.019750869 -0.14434597 -0.0963093 -0.13869196 0.08894399 0.0071169576 -0.057157416 0.06721424 0.11375721 0.05604502 0.03209739 -0.25287092 -0.0136178415 -0.0381403 -0.2535539 0.14893611 0.1342751 -0.09492234 -0.15807287 0.22339153 0.0764882 0.10816651 -0.035357382 -0.08191143 -0.20058158 0.13776597 -0.0026792085 0.109844476 -0.25596917 0.19206084 -0.11097585 -0.05145732 0.29625058 -0.08013439 0.26487657 0.12305578 0.06584695 -0.03643534 -0.059808824 -0.030154992 -0.117831215 0.02503647 -0.10997089 0.22681394 -0.021030206 -0.059355915 0.07707903 0.18062395 0.19587123 0.15379193 0.21320628 -0.020299463 -0.022182131 0.09144052 0.08788972 0.14236313 0.06162466 -0.22324432 0.02646223 0.06807717
государство -0.12988439 0.01880069 -0.024075054 0.016212432 0.0056261397 -0.40127075 0.025814582 0.30769873 -0.18977049 -0.1521423 -0.08837032 -0.27487805 -0.1708429 0.11092093 0.067549385 -0.17350344 0.04513883 -0.14842066 -0.102585204 -0.021873428 0.06674494 0.08297183 0.06327508 0.0019094794 -0.07087529 0.051853538 -0.06433044 -0.06114907 -0.03581337 -0.16929412 0.31914538 0.07309339 0.09048815 -0.028888028 -0.113651186 0.25381604 0.12934181 -0.1426962 -0.13786907 -0.31580108 -0.053724874 -0.10223747 -0.0474863 -0.06759816 0.06332642 0.0024824452 -0.06691321 0.07660255 0.07714611 0.037041258 -0.059451304 -0.22767839 -0.008545991 0.03135211 -0.22933385 0.1394084 0.14374074 -0.17001572 -0.1466346 0.15604171 0.10313548 0.11837389 -0.05119526 -0.06902667 -0.22681251 0.17965649 -0.027659591 0.10129291 -0.21893424 0.23956548 -0.09083031 -0.04932096 0.33614224 -0.07418771 0.3228838 0.1873101 0.05432349 -0.019063469 -0.100994036 -0.13315462 -0.11285937 0.05056713 -0.13459682 0.23393777 -0.01751737 -0.032760214 0.03024112 0.20773627 0.18334554 0.18786298 0.21990414 -0.03023466 -0.03566077 0.13519877 0.11712526 0.13956985 0.026753131 -0.14702176 0.063665494 0.01993344
вопрос -0.14632164 -0.0048756106 0.0108742295 -0.015196895 0.025473751 -0.41280323 0.03754602 0.30495816 -0.13707553 -0.14800178 -0.13740914 -0.23126948 -0.16985108 0.09446724 0.04467843 -0.16409066 0.012216854 -0.14079809 -0.097189635 -0.05668622 0.08673107 0.06303692 0.036922935 -0.010575 -0.017507473 0.02868094 -0.033829033 -0.06318482 -0.08092437 -0.10624748 0.3284174 0.09253491 0.03213442 -0.07937073 -0.1048652 0.21302804 0.09577133 -0.13342923 -0.093107186 -0.28902188 -0.03834944 -0.10096241 -0.106638774 -0.12045909 0.08207801 -0.016660562 -0.09154447 0.08515883 0.08437146 0.06401948 -0.006508153 -0.25210842 -0.036925435 -0.0046490044 -0.22281827 0.1600807 0.14271708 -0.1116891 -0.12481487 0.20190188 0.06959252 0.093585126 -0.036600385 -0.082823545 -0.19945084 0.17994665 -0.023423411 0.08546252 -0.19837093 0.19932017 -0.1122796 -0.013718968 0.3143366 -0.08353031 0.30203736 0.12979537 0.035404615 -0.04929168 -0.06845373 -0.070725 -0.11093421 0.071426466 -0.12681697 0.24861677 -5.2255593e-05 -0.07361952 0.041394502 0.21939209 0.18689439 0.15355824 0.22540359 -0.01228305 0.018378077 0.07601887 0.100412205 0.15180543 0.061196215 -0.18852088 0.047007855 0.027593698
полиция -0.15030321 0.03240706 0.021536198 -0.037058704 0.07146383 -0.40921634 0.04196609 0.31906542 -0.11857256 -0.15189599 -0.13937132 -0.2511711 -0.15391342 0.09598447 0.06214398 -0.1683104 0.028572343 -0.12184637 -0.09638945 -0.10705961 0.09412094 0.06948131 0.020831324 -0.03323152 -0.031415373 0.018956266 -0.03507561 -0.10849 -0.078619584 -0.10222203 0.3076354 0.123213135 0.030742586 -0.10102752 -0.11046281 0.21823908 0.07499718 -0.12648642 -0.09237189 -0.29176894 -0.03760572 -0.13703436 -0.12031604 -0.13348371 0.09672263 -0.025866622 -0.07061507 0.073688164 0.10158106 0.086261176 0.023763573 -0.24324204 -0.03389537 -0.022877 -0.25059682 0.12464671 0.1604292 -0.12874563 -0.14941317 0.21727638 0.072954655 0.10718802 -0.03800974 -0.08532 -0.19721347 0.16386724 -0.027955389 0.04971445 -0.2296525 0.17565908 -0.1051131 -0.03235588 0.29088804 -0.087669514 0.2657934 0.120537065 0.043101404 -0.02372381 -0.07938982 -0.04888504 -0.08464772 0.04682588 -0.14324042 0.216243 0.0049564107 -0.038891226 0.04483586 0.22506036 0.18770291 0.16014595 0.2339429 0.0002332113 0.0030481743 0.08115539 0.08090763 0.1327144 0.0694724 -0.20784332 0.06977482 0.033753008
работа -0.12698339 0.0037722832 0.008407554 -0.016884794 0.04935376 -0.40780967 0.043823615 0.31487522 -0.13990897 -0.15001161 -0.11639145 -0.24595371 -0.16520518 0.079619884 0.042755578 -0.15987404 0.04646456 -0.12503272 -0.0849748 -0.0698281 0.09417641 0.054173198 0.032164276 -0.027051704 -0.049424365 0.023627779 -0.03995461 -0.089109935 -0.049547896 -0.10468066 0.31438068 0.09186183 0.04437472 -0.09248485 -0.09224669 0.21183454 0.10574639 -0.14634596 -0.09039212 -0.2824677 -0.023347914 -0.14389889 -0.09818921 -0.11901244 0.102704726 -0.013048529 -0.108428776 0.096143536 0.091293 0.064858824 -0.00106105 -0.24295571 -0.020156873 -0.009664041 -0.24171853 0.14615369 0.15514326 -0.11550307 -0.11409282 0.22646162 0.071552746 0.08324899 -0.027754413 -0.0700584 -0.17777686 0.18326923 -0.006591785 0.08762565 -0.22409342 0.1822985 -0.12278552 -0.04079731 0.30591717 -0.08364351 0.30647978 0.12650363 0.045213647 -0.047630753 -0.073803574 -0.0808353 -0.13102931 0.06793472 -0.12220067 0.22738892 -0.004992884 -0.06730917 0.055440728 0.20492308 0.1966921 0.14543879 0.21092868 -0.007855155 0.0047890353 0.089077145 0.08673957 0.12511669 0.055998687 -0.18496913 0.04915623 0.03971301
называть -0.12342163 -0.004184146 0.024769427 0.011457282 0.05005103 -0.403262 0.030145992 0.32954502 -0.1301548 -0.18172361 -0.11248239 -0.27231532 -0.15820105 0.09493093 0.053238396 -0.13892029 0.030303571 -0.13056941 -0.07375826 -0.074022144 0.080521576 0.049106944 0.006046603 -0.01776517 -0.042539086 0.022683222 -0.04309345 -0.07123784 -0.045068715 -0.11540782 0.29433805 0.10385133 0.067453 -0.09957456 -0.10553934 0.21857816 0.12710829 -0.14531484 -0.099302284 -0.26150194 -0.029877683 -0.119294256 -0.10614993 -0.11973739 0.0862652 -0.01748875 -0.087345034 0.11797849 0.08270661 0.057399318 0.0032579063 -0.25507587 -0.014693101 0.0059961737 -0.23207586 0.1489768 0.14069495 -0.13718203 -0.10193762 0.2499789 0.054761063 0.08975182 -0.008169049 -0.07162114 -0.21247515 0.16834277 -0.0034679673 0.088619985 -0.1977223 0.16896304 -0.0806048 -0.07050931 0.3292187 -0.07637241 0.30605263 0.12114616 0.06361182 -0.04689907 -0.07252241 -0.08386602 -0.123629 0.08038006 -0.0973645 0.21660782 -0.0015497132 -0.03695937 0.07339181 0.21375252 0.20608333 0.16360009 0.21271823 -0.0029354885 -0.00690597 0.120715216 0.094673544 0.12925364 0.031148793 -0.18451343 0.039512202 0.06035482
являться -0.14505982 0.00481216 0.03170902 0.012786461 0.039522402 -0.40122026 0.040871475 0.31528822 -0.13435729 -0.16755798 -0.12505656 -0.24704558 -0.15826917 0.07563196 0.04742938 -0.15498705 0.024235241 -0.13238963 -0.0822587 -0.058628935 0.079323225 0.07594038 0.0036212343 -0.012834585 -0.035685696 0.028815238 -0.05530865 -0.08451273 -0.06945982 -0.12294455 0.3117359 0.11032317 0.036136165 -0.07456162 -0.11323607 0.23376897 0.10047629 -0.15455802 -0.09110104 -0.28580236 -0.040837303 -0.1256762 -0.111087546 -0.123697706 0.08640641 -0.028914345 -0.0779408 0.073688716 0.08903185 0.06410684 -0.017990202 -0.2528255 -0.04612303 -0.023047615 -0.24719301 0.15058187 0.13310152 -0.14817747 -0.11496183 0.22094911 0.09088954 0.11518034 -0.01741901 -0.09007469 -0.2201908 0.1851487 -0.029142587 0.08225767 -0.20135587 0.18539117 -0.0835031 -0.035298165 0.31641078 -0.084910125 0.32617968 0.15005861 0.035656024 -0.051140375 -0.08013092 -0.07026854 -0.096197635 0.044054233 -0.13500087 0.23620175 -0.0150691755 -0.056171875 0.050623693 0.19863397 0.18511517 0.15215708 0.20771512 0.00139936 0.0047534145 0.10850951 0.10298376 0.13484752 0.04921369 -0.17536291 0.030751346 0.03205028
дело -0.12800725 0.040812965 -0.013490239 -0.017963804 0.06784733 -0.4334704 0.045484036 0.33536112 -0.12788413 -0.117834836 -0.11071926 -0.23408537 -0.15140973 0.13983028 0.07128976 -0.17786066 0.015608117 -0.13174525 -0.097504795 -0.0401044 0.09508513 0.08762763 0.036710255 -0.0106973415 -0.04598911 -0.0069297533 -0.042514045 -0.08275567 -0.089203514 -0.12031307 0.3495857 0.091258176 0.06492854 -0.05873173 -0.10122353 0.24425143 0.11474132 -0.16772422 -0.1372467 -0.27518436 -0.08506543 -0.09656121 -0.08057454 -0.097339764 0.061587736 0.014883841 -0.093859114 0.09916676 0.061573695 0.06476422 -0.012474468 -0.265039 -0.054836664 -0.041412883 -0.2408604 0.19384176 0.14903256 -0.12856065 -0.12242361 0.18772508 0.12139953 0.09990282 -0.034460817 -0.08231913 -0.2183014 0.20252724 -0.032140266 0.084547006 -0.2308865 0.2110915 -0.09790709 -0.05529559 0.30018798 -0.10962224 0.32155994 0.15833025 0.07614126 -0.0366414 -0.11091959 -0.046463694 -0.1382631 0.05331546 -0.1721744 0.2489885 -0.01800473 -0.018152982 0.051541124 0.1824814 0.21490395 0.16529411 0.239838 -0.027214697 -0.012565219 0.08347448 0.07994375 0.14017354 0.083936945 -0.17257173 0.025767222 -0.0018606764
издание -0.1550134 0.020870835 -0.0051443623 -0.010324333 0.065755755 -0.35682365 0.034559604 0.3303816 -0.16766146 -0.12277031 -0.12536946 -0.25642347 -0.13815936 0.08320359 0.057158634 -0.1514035 0.046882268 -0.14511879 -0.077880196 -0.103027664 0.09013609 0.048497334 0.034450285 -0.018510642 -0.070583075 0.00043529656 -0.05288537 -0.09978903 -0.07850818 -0.112542614 0.32651 0.1038724 0.017361494 -0.10181056 -0.077626795 0.21012028 0.10038585 -0.15659328 -0.10255099 -0.28485614 -0.03285471 -0.14413267 -0.122741446 -0.0898141 0.10675915 0.018821651 -0.053358108 0.084998414 0.10149433 0.067400776 0.011934299 -0.22830442 -0.011102146 -0.003629457 -0.22869763 0.12023225 0.14000672 -0.09739995 -0.15127595 0.19121054 0.056250803 0.115358226 -0.05183017 -0.07618729 -0.1619771 0.17428926 -0.024363969 0.07974454 -0.22105353 0.15817581 -0.11429318 -0.042458277 0.3150457 -0.09692998 0.29732993 0.11808746 0.053913593 -0.054774817 -0.058616426 -0.053054623 -0.12262262 0.04880541 -0.13517147 0.22786954 -0.040189978 -0.070197165 0.046781573 0.21792226 0.20443434 0.1461092 0.25346035 0.0035628465 -0.0006094593 0.12894061 0.11397558 0.15714683 0.08911462 -0.19040242 0.07355006 0.020768957
американский -0.13583235 0.007841121 0.020331256 -0.008309673 0.03706485 -0.38214198 0.040491346 0.3146018 -0.15878999 -0.1334608 -0.13948962 -0.25349697 -0.15258373 0.07644354 0.04302427 -0.15668814 0.022176128 -0.14530341 -0.09023757 -0.067959026 0.096709035 0.052161396 0.039175533 -0.0278571 -0.031718798 0.009731206 -0.04303071 -0.089144826 -0.058387186 -0.1064993 0.29455677 0.11294627 0.03472006 -0.0869242 -0.102636494 0.22645105 0.09871453 -0.14305137 -0.10072867 -0.28202927 -0.026180178 -0.14845069 -0.10289262 -0.09917473 0.09196428 -0.0064577186 -0.08317216 0.07187195 0.07850107 0.06580185 0.011200033 -0.24279737 -0.037206408 -0.0028852161 -0.23958276 0.122700244 0.15984657 -0.104915775 -0.13174708 0.21456476 0.09206956 0.08787854 -0.023985596 -0.08349801 -0.18108317 0.18356596 0.002478492 0.08314651 -0.20627263 0.17482378 -0.12163569 -0.028582165 0.30084863 -0.07870464 0.31252864 0.12208168 0.04224935 -0.047346886 -0.07718302 -0.058355022 -0.111040674 0.05693554 -0.13652483 0.20416528 -0.017129682 -0.07347953 0.060307276 0.21650703 0.19409657 0.16194168 0.20605215 0.010615383 -0.009006993 0.10490021 0.116266735 0.14576532 0.054866247 -0.17404494 0.062300332 0.027110463
должный -0.124933764 0.023307856 0.04596528 0.016585806 0.046689603 -0.42080826 0.037636526 0.29776454 -0.15400082 -0.17544651 -0.13313623 -0.2630519 -0.14799313 0.10695062 0.06800779 -0.15218617 0.0358772 -0.12938297 -0.087565176 -0.09526683 0.12481646 0.045516834 0.022907589 -0.013244038 -0.050977193 0.030602101 -0.06857329 -0.06640175 -0.06606919 -0.11027614 0.30578044 0.10737088 0.055547833 -0.10176145 -0.11597385 0.21897732 0.1339086 -0.108322255 -0.10092499 -0.2660529 -0.017667688 -0.1343934 -0.12182097 -0.12750556 0.09028604 -0.004720574 -0.08366492 0.11563579 0.09049834 0.071566984 -0.0020827278 -0.2576749 -0.027329532 -0.019189259 -0.22088583 0.14242671 0.12098159 -0.12540294 -0.11655912 0.22936802 0.05821506 0.08434208 -0.02422168 -0.050094254 -0.16584483 0.15457147 0.0072458605 0.08316086 -0.198141 0.18762814 -0.11754293 -0.048187256 0.3270132 -0.07190481 0.28818467 0.13605024 0.04625139 -0.04111123 -0.05873468 -0.08733749 -0.10434534 0.056816667 -0.096851595 0.21721105 -0.0030068029 -0.061059184 0.07153743 0.20408748 0.20104712 0.14500923 0.23159246 -0.0038171816 0.005188824 0.115742475 0.059991468 0.13242535 0.031281363 -0.16018054 0.036237422 0.046045296
сторона -0.1348878 -0.0015749705 0.02181404 0.0051062717 0.02522654 -0.40539125 0.03934425 0.3183814 -0.12608027 -0.1591395 -0.1371276 -0.23589993 -0.18741894 0.10062505 0.06266774 -0.15430404 0.009465844 -0.14827864 -0.118301265 -0.06112012 0.10865954 0.059477113 0.03448292 -0.029180413 -0.03787244 0.0076742945 -0.052937202 -0.10186695 -0.049026318 -0.123226255 0.29646987 0.115993924 0.03854806 -0.09578429 -0.094595775 0.21369922 0.10098667 -0.1305617 -0.10295257 -0.27195853 -0.0277671 -0.1270016 -0.10029033 -0.124599166 0.102542125 0.011003163 -0.08565049 0.09903415 0.09173071 0.07825809 0.0028059797 -0.25710624 -0.02741379 -0.009868304 -0.23907202 0.14178629 0.1358918 -0.13845287 -0.113220565 0.22861028 0.08576121 0.09884635 -0.015083498 -0.10370074 -0.18349524 0.17889021 -0.0121917 0.08405804 -0.20769188 0.17738739 -0.094257906 -0.055942774 0.30431303 -0.08901588 0.29773092 0.139113 0.05837521 -0.037636895 -0.056703374 -0.08153771 -0.108754866 0.0674319 -0.13787498 0.20814517 0.003459254 -0.053390827 0.072724424 0.22222853 0.18205617 0.1763117 0.21301734 -0.016776904 -0.014127327 0.08976556 0.09038415 0.13756533 0.04552027 -0.18091331 0.030576289 0.035170007
решение -0.11838529 -0.0361828 -0.0076130317 0.0015734857 0.012305384 -0.41814607 0.05549558 0.32725307 -0.17599559 -0.12963757 -0.10697493 -0.23548028 -0.15275732 0.111593686 0.03635093 -0.16746922 0.023678215 -0.15181997 -0.10694266 -0.05442804 0.12262439 0.06525681 -0.0020270017 -0.0063547054 -0.04963452 -0.026165858 -0.035125524 -0.08284256 -0.03921998 -0.10940544 0.33826846 0.115001135 0.070967175 -0.10045519 -0.09700269 0.22809972 0.13204907 -0.12459455 -0.07225771 -0.31898665 0.0075833113 -0.1399351 -0.09358722 -0.09208841 0.08363286 0.013795398 -0.08807618 0.14325845 0.10116098 0.049110334 -0.026033835 -0.27980828 -0.00016632327 -0.038577344 -0.20533481 0.15841447 0.14493291 -0.10018588 -0.099117205 0.25562048 0.11105863 0.07922799 -0.00046468776 -0.12147165 -0.1970939 0.14894342 -0.0057221455 0.10901404 -0.2130037 0.18679795 -0.10175678 -0.07584731 0.3002727 -0.048346248 0.32614186 0.12963468 0.050273333 -0.06306508 -0.07663949 -0.087061614 -0.08342806 0.10284896 -0.15271734 0.22365357 -0.011322472 -0.084797226 0.062898494 0.19469284 0.18532088 0.18865071 0.21492717 -0.0061201686 0.046314865 0.13080537 0.07375261 0.12420371 0.04880858 -0.176493 0.071057506 0.0119268615
мужчина -0.12771162 0.023196131 0.03230392 -0.025575314 0.06002476 -0.39744878 0.028976383 0.31990528 -0.1413143 -0.17078234 -0.12785554 -0.23883243 -0.16525666 0.09967888 0.06587247 -0.14174934 0.026785461 -0.12330874 -0.08991025 -0.09288774 0.111284986 0.04934357 0.042717878 -0.03041091 -0.044207867 0.022132713 -0.060593627 -0.110741295 -0.053008854 -0.085776895 0.2832695 0.10236256 0.03935691 -0.10302328 -0.09576793 0.21289824 0.0728328 -0.118676215 -0.063162595 -0.26509175 -0.02646898 -0.14427227 -0.1169757 -0.11450867 0.11338398 -0.028864006 -0.07922593 0.07620446 0.088972315 0.071590684 0.017706743 -0.22703354 -0.03501173 -0.0074824155 -0.22734813 0.12575383 0.15003352 -0.105484284 -0.10443509 0.21942681 0.05138651 0.11124963 -0.04682208 -0.06596066 -0.18861628 0.18286133 -0.0036016195 0.0730632 -0.20505586 0.17054483 -0.11412509 -0.0518776 0.29688367 -0.1030117 0.27216005 0.102362916 0.033978004 -0.026044294 -0.05197523 -0.047817905 -0.111894056 0.05031559 -0.12253778 0.22833364 0.0101853125 -0.048072837 0.047828786 0.20827585 0.20287655 0.13956481 0.20211269 -0.0028503798 0.0118455775 0.06895021 0.09893647 0.13401763 0.053881533 -0.18735602 0.04837836 0.055008885
путин -0.00147983 0.02951553 -0.09143739 0.17933145 -0.07506815 -0.34036526 0.048743155 0.40375257 -0.31514192 -0.08071 -0.121764354 -0.22591369 -0.04836322 0.08364057 -0.048541687 -0.20507565 0.07060347 -0.06757647 -0.22211188 -0.036086474 -0.0041546733 0.047884606 0.1080279 0.033276036 -0.0007649584 0.0009661506 -0.061036624 0.16017681 -0.050138757 -0.094275765 0.25350726 -0.08832375 0.079024546 -0.035859626 -0.12236403 0.25667378 0.13944657 -0.30101743 -0.14460821 -0.43687955 -0.16278522 -0.109146066 0.06028332 0.07147397 0.03956832 0.04781806 -0.1207113 0.035611812 0.008337552 0.029920846 -0.027838847 -0.33670902 -0.08453644 -0.08260754 -0.28330123 0.13424076 0.14203656 -0.15947606 -0.17758033 0.15694422 0.23824295 -0.02719594 0.05907018 0.0018093978 -0.34162217 0.17162861 0.120420225 0.36829102 -0.20678498 0.3395659 -0.11482857 -0.016654423 0.33360526 0.007641501 0.34959128 0.255246 0.04438464 -0.091554925 -0.1526329 -0.119976036 -0.057235505 0.21522306 -0.19714162 0.16544214 -0.08638443 -0.27112827 -0.07281972 0.10699432 0.209873 0.23192813 0.27082774 -0.024007922 -0.060734425 0.21731737 0.30809516 0.14313678 0.13595235 -0.16908881 0.029740257 -0.033032544
церковь -0.11220772 -0.1088385 0.14175732 0.18250607 0.105640285 -0.3669585 0.018754303 0.30692425 -0.15683883 -0.29470775 -0.037440445 -0.34595862 -0.14050941 0.17450497 0.13227257 -0.09107089 -0.16007538 -0.17248283 -0.13285 0.099500425 -0.034261204 0.08161935 -0.13713974 0.009431002 -0.05282443 -0.046126433 -0.00546873 0.02035183 -0.028809415 -0.2744778 0.47206888 0.13828968 0.37423602 -0.117889635 -0.20263949 0.35833192 0.40236515 0.031049043 -0.05895983 -0.17167886 0.013103543 -0.040536545 0.14364369 -0.1817076 -0.09513405 0.11479441 -0.0734923 0.45232216 0.16410425 -0.017764118 -0.13518526 -0.36916682 0.110782 0.089944266 -0.3381909 0.35990342 0.022248851 -0.27892774 -0.14233619 0.44221583 0.11886887 0.26300654 -0.05560903 -0.24721076 -0.3334449 0.00020677797 -0.09243104 0.18934116 -0.24973294 0.16757254 -0.021217681 -0.302987 0.52415645 -0.14819275 0.6299998 0.15292507 0.1490713 0.0213044 0.07532155 -0.26750517 -0.06917454 0.17397507 -0.17836547 0.28869885 -0.23781589 0.19685595 0.10771598 0.14900938 0.08409141 0.123103514 0.11413091 -0.08867117 -0.016802823 0.3974232 -0.03838644 -0.0033932133 -0.1846099 -0.21343453 -0.09233703 -0.04180837
военный -0.14402874 -0.020590546 0.017748853 0.010743803 0.0082792295 -0.38007262 0.040680826 0.32708663 -0.14335471 -0.13302311 -0.14139141 -0.22328044 -0.14108454 0.07623759 0.048163537 -0.14306918 0.008924154 -0.13944203 -0.119663835 -0.055855535 0.0819691 0.05556829 0.02462339 0.001227171 -0.04719802 -0.015406304 -0.010107424 -0.10096134 -0.06340704 -0.115422286 0.31608203 0.10651033 0.070642695 -0.09172529 -0.08648559 0.23783575 0.09359011 -0.14872763 -0.10089369 -0.27946362 -0.002480927 -0.10478495 -0.095304705 -0.10430074 0.086350024 0.010556774 -0.064996675 0.10184301 0.101098634 0.036560617 -0.0014986232 -0.2647803 -0.022094212 0.015710065 -0.26206568 0.17163217 0.12268368 -0.13610816 -0.12072545 0.21711466 0.09636844 0.13974585 -0.040643465 -0.10438149 -0.19780609 0.16392826 -0.028063513 0.10100722 -0.22101845 0.18724512 -0.093369894 -0.032964893 0.31931743 -0.094614886 0.34615228 0.12533955 0.055151954 -0.058216363 -0.09232295 -0.08040565 -0.1155678 0.056759737 -0.12938519 0.24185556 -0.06132548 -0.049432237 0.025256593 0.19343519 0.18954322 0.15539537 0.21542981 -0.028420405 0.0009889029 0.12586859 0.10830787 0.12228246 0.028148975 -0.19810864 0.024728483 0.047748625
город -0.13450943 0.033859614 0.029555865 -0.004639391 0.06114203 -0.41461957 0.047288105 0.31166103 -0.15149961 -0.16749196 -0.13400336 -0.26447782 -0.15526535 0.08405585 0.06509471 -0.16212909 0.03696142 -0.12650193 -0.068383865 -0.08950965 0.12071888 0.052276652 0.04509345 -0.025879163 -0.06121325 0.05405856 -0.045304287 -0.11543972 -0.053475875 -0.07176764 0.27500564 0.1192 0.025984451 -0.09518994 -0.09764226 0.20358317 0.10086416 -0.1185718 -0.08843215 -0.26211926 -0.010195395 -0.14455777 -0.113471664 -0.124814734 0.10193354 -0.0153189935 -0.081708 0.07043203 0.11186784 0.051213775 0.016687881 -0.24338442 -0.010191359 -0.03235439 -0.22476207 0.1094257 0.14454848 -0.11006584 -0.11885835 0.24207309 0.05337979 0.09084537 -0.030067952 -0.05132962 -0.1643264 0.18655063 0.0036577708 0.06604269 -0.2290555 0.1647228 -0.12160357 -0.046868306 0.31704405 -0.09811721 0.2771231 0.12515022 0.04532511 -0.031210268 -0.056090634 -0.060331807 -0.115653634 0.06086125 -0.110193 0.19756559 -0.0005400537 -0.076755695 0.0788671 0.21532197 0.2186081 0.13748762 0.22122036 0.012215702 -0.008076025 0.07361187 0.08418814 0.115350865 0.052984655 -0.18505077 0.057344526 0.062275924
находиться -0.12419015 0.028169094 0.027440758 -0.013981058 0.05947634 -0.41074327 0.064584516 0.32024077 -0.124862775 -0.18268181 -0.14700347 -0.26574424 -0.16511725 0.07855506 0.07391552 -0.14155835 0.047886036 -0.12686002 -0.061817557 -0.09731246 0.13789403 0.059832424 0.0076314732 -0.0155503545 -0.06795488 0.054956514 -0.059939153 -0.10902475 -0.05598741 -0.083031885 0.29593003 0.101576686 0.024304908 -0.10283911 -0.10459102 0.22229977 0.10823193 -0.12536693 -0.109803714 -0.24606998 -0.029555853 -0.14543314 -0.12924667 -0.14077324 0.12575035 -0.0098021375 -0.10638766 0.06971395 0.099502675 0.05474744 0.015094463 -0.23066214 -0.018253952 -0.022858009 -0.223174 0.124979146 0.15168451 -0.12380614 -0.114123 0.23661725 0.033297054 0.08506265 -0.0428803 -0.07408724 -0.17200448 0.16290946 -0.0037114467 0.050174646 -0.22004758 0.14804639 -0.119063735 -0.0490972 0.3069879 -0.09943702 0.2806462 0.12135041 0.05817161 -0.019600343 -0.077912875 -0.04544225 -0.14203924 0.055044413 -0.085345775 0.22358412 0.0040077446 -0.054364964 0.06309622 0.221207 0.20365076 0.12503318 0.23324071 0.0117343655 0.003632937 0.07382304 0.07852808 0.121810466 0.03972216 -0.18588531 0.046011493 0.08011088
добавлять -0.14151259 0.008777807 0.026952097 -0.0028703636 0.029560404 -0.3918497 0.046530444 0.3119014 -0.1545582 -0.16435649 -0.1127702 -0.25625092 -0.16404808 0.09927205 0.050728448 -0.14639518 0.022607414 -0.12589833 -0.09298081 -0.06228847 0.08067983 0.053787403 0.018868467 -0.00017731039 -0.041797444 0.018546736 -0.035938665 -0.065091334 -0.046244927 -0.116683856 0.30236667 0.09169166 0.041646145 -0.076661475 -0.08840456 0.21112639 0.119475275 -0.1445171 -0.08908068 -0.2878296 -0.025906518 -0.1350602 -0.08806882 -0.10007098 0.08939583 -0.008335057 -0.09438389 0.096781544 0.09195208 0.059590492 -0.017029656 -0.2558462 -0.014960097 -0.013185135 -0.23059991 0.1498168 0.13473292 -0.115367316 -0.12861097 0.20487355 0.061178807 0.099294215 -0.041960012 -0.08444981 -0.19442056 0.17864266 -0.00867299 0.08951549 -0.2025206 0.1810869 -0.10708711 -0.03755493 0.315284 -0.09420653 0.31431714 0.14499082 0.05923433 -0.051933948 -0.06967171 -0.076277696 -0.10275115 0.058086954 -0.12109669 0.23245676 -0.004652568 -0.057768993 0.04757212 0.21129878 0.18138643 0.16200125 0.21572907 -0.014471997 -0.009630732 0.102250144 0.09791652 0.13713913 0.057429187 -0.186049 0.06472574 0.039125588
день -0.12638307 0.032566708 0.02778827 0.011675814 0.07194991 -0.39768204 0.04321509 0.3164248 -0.14815736 -0.17818418 -0.13140273 -0.25725746 -0.16176334 0.085126564 0.06817889 -0.15976344 0.07005534 -0.11664325 -0.08242803 -0.094393045 0.10391104 0.051852338 0.038884412 -0.02698178 -0.05516813 0.038743705 -0.063737735 -0.10129482 -0.04646264 -0.07086061 0.25956532 0.09304061 0.016445462 -0.110918514 -0.1071081 0.2101048 0.11827413 -0.114698395 -0.088786386 -0.23937705 -0.019410815 -0.16087814 -0.11853187 -0.11956895 0.12839288 -0.0097452 -0.10463047 0.09154435 0.1116016 0.058248732 0.033100527 -0.24418709 -0.00922934 -0.03249476 -0.24487862 0.13217925 0.1451131 -0.10532932 -0.125926 0.23248482 0.04275729 0.07341715 -0.029588388 -0.044311818 -0.14542358 0.16197987 -0.0037022284 0.0957357 -0.21154234 0.16224355 -0.11969751 -0.045643114 0.32106006 -0.07792023 0.2620172 0.10831129 0.03785181 -0.03332462 -0.05335981 -0.0677037 -0.12722449 0.046363845 -0.09476846 0.20700355 0.019715622 -0.071051344 0.08958826 0.2189838 0.21875349 0.14714988 0.23738149 0.016685007 0.02437404 0.09743366 0.07412486 0.12593216 0.05398436 -0.15378585 0.049696274 0.06246342
информация -0.13213272 0.0024781039 0.04233589 0.0060017216 0.058138408 -0.3814844 0.07027785 0.2987016 -0.15497524 -0.1635933 -0.13104187 -0.26979104 -0.16096199 0.083632626 0.06652125 -0.14772992 0.023306632 -0.13748717 -0.08465884 -0.10308738 0.11401242 0.06022791 0.019639371 -0.0041598007 -0.05936022 0.020874247 -0.051357646 -0.093586765 -0.065787114 -0.11450012 0.3014575 0.10534507 0.048817825 -0.11566916 -0.10515271 0.21860349 0.11735551 -0.11325507 -0.104664974 -0.2517148 -0.016780447 -0.15991569 -0.10332902 -0.10918113 0.11465053 -0.0059942603 -0.08834724 0.0810311 0.090782285 0.07309914 -0.009721715 -0.24078333 -0.022894705 -0.028104624 -0.2216737 0.10983202 0.1235958 -0.10725673 -0.13112143 0.23172198 0.037563972 0.09881632 -0.035203695 -0.0808341 -0.18276526 0.16064675 0.0063064797 0.08481548 -0.21953315 0.18045776 -0.1047693 -0.043703858 0.31118727 -0.104548454 0.3081946 0.1152212 0.042934343 -0.030695269 -0.048168294 -0.07875594 -0.11339562 0.061956745 -0.10989368 0.2313134 -0.000102964 -0.04373553 0.05040076 0.23021342 0.20910679 0.12874354 0.22141889 -0.016073612 0.026306335 0.110714614 0.077440985 0.13272795 0.05392935 -0.19437832 0.058428723 0.034684893
область -0.13152911 -0.004788374 0.03301317 0.025073938 0.039791428 -0.39842165 0.024234002 0.32901233 -0.14274678 -0.14771444 -0.12236642 -0.2566467 -0.13960867 0.09921223 0.0659379 -0.13107291 0.0101545 -0.15621328 -0.08727624 -0.08596294 0.085864305 0.07969226 0.019708985 0.00046281316 -0.07038905 0.03199887 -0.028322937 -0.07371558 -0.07057528 -0.079727 0.31654003 0.102389745 0.06579176 -0.08855797 -0.1087934 0.25104815 0.10952611 -0.12866706 -0.10144272 -0.26927343 -0.03689471 -0.14665 -0.09227135 -0.0924572 0.09827176 0.0006661197 -0.09902468 0.11944655 0.08143272 0.04389002 0.02272635 -0.23994963 -0.017743498 -0.026201371 -0.23486008 0.15096441 0.1371498 -0.13683464 -0.13141562 0.23201513 0.07026158 0.11361998 -0.041769363 -0.08031576 -0.20297465 0.1806472 -0.014391658 0.11914512 -0.22544736 0.19303818 -0.109331645 -0.072765134 0.31024694 -0.09302932 0.33474612 0.1337479 0.031343903 -0.026699448 -0.067479715 -0.08864015 -0.09620492 0.059467755 -0.13573372 0.22554927 -0.010867655 -0.034668595 0.05627394 0.22272943 0.20923194 0.13452527 0.23517679 -0.013898134 -0.0112047475 0.12755562 0.07447204 0.14192092 0.02677225 -0.18153103 0.027236698 0.055051733
доллар -0.0706696 0.14640713 0.15727828 0.02497657 0.17852837 -0.48969033 0.080860525 0.31785235 -0.113733225 -0.36326683 -0.24146657 -0.44208813 -0.21288615 -0.019960318 0.111961745 -0.11174268 0.25169364 -0.23338795 0.08541165 -0.27162948 0.38027045 0.13398072 -0.061092306 -0.007368735 -0.16332802 0.23701459 -0.13578574 -0.15040414 0.0437956 0.07313855 0.07384787 0.16688725 -0.08023683 -0.28685048 -0.10593677 0.29513067 0.2822374 -0.05001579 -0.14251208 -0.011783672 0.010536151 -0.3817881 -0.3153388 -0.21913514 0.319199 -0.03269888 -0.20492554 0.11120338 0.21393608 0.08712243 0.14574917 -0.21236481 0.096740656 -0.048825156 -0.25497407 0.04341266 0.12846838 -0.16311996 -0.019893117 0.39885828 -0.20313013 -0.116577305 0.0107805 0.07155871 0.042112775 0.1925881 0.103895135 0.028500456 -0.21603388 0.14287604 -0.1642237 -0.12714067 0.46324822 -0.049975514 0.098092854 0.066003054 0.115515314 0.010353672 0.0804993 -0.05818368 -0.28371692 0.022112591 0.08577312 0.008247874 0.21182169 -0.19526394 0.290651 0.3861617 0.37540123 0.1016963 0.3888863 0.120834425 0.10862167 0.09492714 -0.17692134 0.09071548 0.057465237 -0.045794073 0.0058810203 0.2546489
проводить -0.13271299 0.010233077 0.026116485 -0.013226791 0.051269118 -0.41161108 0.04960617 0.314258 -0.13994813 -0.16631085 -0.13566072 -0.2620709 -0.16544668 0.09129695 0.046568822 -0.15579161 0.023867292 -0.12667607 -0.0887156 -0.09574838 0.10394315 0.077440865 0.029617967 -0.012207794 -0.054279298 0.03160564 -0.043737475 -0.083896816 -0.045682684 -0.09830532 0.3087674 0.10777646 0.049772404 -0.084392585 -0.11512966 0.20968449 0.123503596 -0.11275004 -0.08339007 -0.27411294 -0.014555194 -0.13506077 -0.10835208 -0.11006176 0.109782934 -0.0051408145 -0.081716135 0.07993352 0.091083765 0.05972687 -0.0056305407 -0.23591837 -0.011139243 -0.029573789 -0.2393443 0.12277948 0.14077173 -0.12358875 -0.124867454 0.21638577 0.06541731 0.10697721 -0.04021613 -0.08417278 -0.17884073 0.16436191 0.004562735 0.08328447 -0.2241731 0.16403048 -0.115150884 -0.041274715 0.3093452 -0.08244357 0.28965583 0.13055845 0.0495781 -0.038493987 -0.074200384 -0.06732628 -0.10170245 0.04914572 -0.10767848 0.22224432 0.018463388 -0.059828132 0.06913275 0.21033236 0.1789925 0.13824269 0.2078616 -0.0015863938 0.018144745 0.09365793 0.10152261 0.12665504 0.064737104 -0.17897128 0.04299737 0.05996267
власть -0.13187827 0.015692957 0.014039991 -0.008398915 0.045308556 -0.40741405 0.030582737 0.3152407 -0.15242375 -0.17019007 -0.11896533 -0.25612825 -0.16491787 0.096140176 0.055780713 -0.15976658 0.03045117 -0.13680981 -0.08263605 -0.09140501 0.088917494 0.05923414 0.022560908 -0.01845596 -0.05585806 0.010963968 -0.040225346 -0.09890057 -0.0694665 -0.099694535 0.31002635 0.09054224 0.060150497 -0.096564755 -0.1058928 0.21802513 0.10257979 -0.12786391 -0.09122164 -0.26705438 -0.01550889 -0.14133057 -0.1014586 -0.11681818 0.09401492 -0.0021597287 -0.08628865 0.08937234 0.10016432 0.06944208 -0.013479475 -0.24742424 -0.024158793 0.006457287 -0.23481287 0.15486184 0.13511278 -0.13522685 -0.10918082 0.22815214 0.0821841 0.10692017 -0.042413026 -0.080985524 -0.18645462 0.16295041 0.0022565646 0.076634705 -0.22710119 0.19063823 -0.105825394 -0.05205641 0.31522933 -0.088345714 0.30284616 0.12966493 0.038339764 -0.033137023 -0.07492754 -0.061697457 -0.11239453 0.06573273 -0.11740551 0.23464379 -0.0134310415 -0.06353168 0.03988408 0.2120256 0.20892192 0.16032013 0.21341377 -0.016481562 -0.007972665 0.10519863 0.073556826 0.13630521 0.054474115 -0.1881443 0.03462374 0.05916727
сотрудник -0.13150631 -0.0066896686 0.014840129 -0.0060447906 0.046357688 -0.4150561 0.044747293 0.32416156 -0.14447501 -0.15904005 -0.13466504 -0.26090458 -0.15421519 0.091965266 0.059803687 -0.15418021 0.03569988 -0.119158536 -0.085822694 -0.07500973 0.09486309 0.05685553 0.018731188 -0.024796246 -0.03843824 0.021698955 -0.06336621 -0.096888006 -0.078289114 -0.08611922 0.30669484 0.11490699 0.037163123 -0.11286371 -0.11642444 0.2279689 0.0752787 -0.14968772 -0.10656292 -0.2860547 -0.044789877 -0.13710994 -0.10728355 -0.1134244 0.10824313 -0.0073936195 -0.0735967 0.06844798 0.07891779 0.07084811 0.016906546 -0.25629756 -0.006806946 -0.029327027 -0.24013746 0.12696165 0.13956869 -0.11713483 -0.11993475 0.23086657 0.06998977 0.08984993 -0.05261773 -0.08995211 -0.18029895 0.19103369 -0.02401646 0.06345442 -0.20555839 0.16344616 -0.12394546 -0.04636489 0.29087916 -0.10370143 0.2945575 0.11193183 0.04501468 -0.036207255 -0.06611371 -0.06521692 -0.12677962 0.0542823 -0.109195955 0.22850779 -0.00678589 -0.050197072 0.051950883 0.21010098 0.20727426 0.14045855 0.23248835 -0.02618742 -0.0024806352 0.08915209 0.088039726 0.13982229 0.06626677 -0.20308906 0.061933715 0.041716214
владимир -0.048973516 0.03962151 -0.04075092 0.18778388 -0.06810473 -0.36421424 -0.014704796 0.40808573 -0.27820167 -0.14312568 -0.079887174 -0.25083342 -0.07406856 0.14253262 -0.056486502 -0.162082 0.053196464 -0.103934094 -0.1934948 0.02602377 -0.07869935 -0.006195941 0.09413955 0.07431659 0.00019184976 0.06464024 -0.09495196 0.18532732 -0.066161476 -0.124928355 0.21808188 -0.04419315 0.05059054 0.0052016536 -0.13976339 0.28544927 0.18448384 -0.30802488 -0.15299302 -0.45131704 -0.16623688 -0.1004542 0.058993198 0.037255242 0.01468693 0.012049966 -0.112690754 0.078058556 0.06091896 0.08300357 -0.09200091 -0.28874108 -0.0634862 -0.035755143 -0.32183596 0.11259066 0.14160606 -0.18563132 -0.20169067 0.1352578 0.28514835 0.008493412 0.13084123 0.04253695 -0.32077432 0.14694104 0.1772028 0.35355875 -0.1553248 0.35586363 -0.0372985 -0.015123592 0.33218873 0.038257893 0.41317767 0.30538124 -0.036667086 -0.0747056 -0.114336744 -0.115204625 -0.06416331 0.20095064 -0.15717803 0.160434 -0.10224006 -0.25494444 0.0026746865 0.13506822 0.21133655 0.24321152 0.3018126 0.057732962 -0.061995763 0.20482303 0.26957878 0.2022106 0.09321889 -0.17280605 0.002898246 0.0017012968
октябрь -0.11955315 0.019844744 0.037020613 0.020616194 0.05543549 -0.4007718 0.011523893 0.32110676 -0.16919528 -0.18955117 -0.12099468 -0.27224463 -0.13583554 0.06689172 0.049417816 -0.1507768 0.06916169 -0.14512773 -0.071426354 -0.08751836 0.08910745 0.06681557 0.015365751 -0.013318213 -0.06022317 0.05511456 -0.07094642 -0.042034294 -0.031449765 -0.06965593 0.27259094 0.098654166 0.02978408 -0.11782621 -0.11515586 0.25540638 0.13333264 -0.14563379 -0.1085668 -0.2633937 -0.025597293 -0.13618034 -0.09856799 -0.113555364 0.12533258 -0.005122112 -0.10271167 0.10054399 0.09655542 0.046450302 0.00443864 -0.24811725 0.000119858305 -0.011625924 -0.23473993 0.13643889 0.119769126 -0.12108229 -0.11476548 0.26001185 0.0803085 0.055694427 0.0071096593 -0.055307224 -0.17565282 0.15739599 0.037285905 0.12062971 -0.20121083 0.19300586 -0.101344325 -0.054601382 0.30883315 -0.067456216 0.28873426 0.14834611 0.039023757 -0.041034017 -0.041874986 -0.09244289 -0.12510505 0.08479429 -0.10625855 0.20300837 0.004431597 -0.09555185 0.06924398 0.22354572 0.21589547 0.15926471 0.21725304 0.0014312634 0.021231934 0.115924135 0.07862945 0.11748287 0.059584543 -0.16558683 0.046597198 0.058190163
регион -0.12332284 -0.0006829325 0.004738931 -0.0035565142 0.041166753 -0.3889527 0.04109733 0.31796214 -0.16848904 -0.14445873 -0.1125145 -0.25754508 -0.15201457 0.07837179 0.047986872 -0.14175285 0.042426325 -0.13244608 -0.10186651 -0.07636529 0.067291565 0.07036849 0.023252971 -0.012472062 -0.066408925 0.04031516 -0.039317753 -0.06917068 -0.05242039 -0.10617062 0.31569153 0.09329952 0.043291427 -0.083390996 -0.089363664 0.23791625 0.11971322 -0.14545347 -0.10973193 -0.29611006 -0.01858444 -0.14395265 -0.10883799 -0.086798064 0.09705794 0.0018512113 -0.086368546 0.095065735 0.09520429 0.042017393 -0.00065539294 -0.2483655 -0.0112668 -0.0059599113 -0.2529845 0.1371014 0.1475571 -0.11110727 -0.13190839 0.1977919 0.05732618 0.10092324 -0.040400792 -0.06931199 -0.18621916 0.18699312 0.0036353243 0.09018352 -0.21376656 0.19588326 -0.12244955 -0.050318055 0.3011953 -0.07832347 0.29994142 0.12782897 0.043772545 -0.037873395 -0.06487001 -0.074503325 -0.1189424 0.0492975 -0.116204396 0.21981616 -0.025389876 -0.067140274 0.049616266 0.22178112 0.194978 0.16029695 0.22122386 -0.00027297885 -0.0006286548 0.110107765 0.09585629 0.13116163 0.06395583 -0.190634 0.072750315 0.045124922
летний -0.14018281 0.022067327 0.03346518 -0.019741079 0.06096344 -0.4003774 0.048068136 0.30801156 -0.14462493 -0.14126831 -0.13117348 -0.25683033 -0.15772082 0.08847841 0.0655179 -0.1552952 0.019755641 -0.12598011 -0.09294287 -0.09444907 0.1039475 0.06466529 0.021239357 -0.028017415 -0.05845631 0.025767392 -0.04039588 -0.09821331 -0.071186766 -0.08528583 0.31413525 0.098528564 0.032668598 -0.09236148 -0.116910726 0.20522712 0.09404371 -0.12274532 -0.08431353 -0.2770271 -0.040306505 -0.14100659 -0.11975473 -0.10533437 0.10474827 -0.011709838 -0.0786762 0.087311015 0.081172 0.084879994 0.024646908 -0.24432296 -0.021806685 -0.03196944 -0.22121677 0.13703246 0.12771799 -0.13273343 -0.13586101 0.20161712 0.04499197 0.12520519 -0.043727 -0.08585236 -0.1707999 0.18170843 -0.0019919733 0.080758154 -0.22837561 0.16096519 -0.10998379 -0.032048527 0.30045035 -0.11102356 0.28548086 0.13251795 0.028690064 -0.026970787 -0.07204397 -0.059719276 -0.10901088 0.029334946 -0.12975135 0.22718263 0.004258495 -0.03441602 0.038887046 0.20032051 0.2125568 0.14581414 0.21631818 0.01253292 0.016228357 0.072860084 0.10506963 0.13258925 0.05505222 -0.19469263 0.06299828 0.04399173
выступать -0.1110622 0.006773197 0.015259087 0.011206881 0.025237285 -0.3859463 0.034058988 0.32376686 -0.16602284 -0.14781252 -0.124537505 -0.23002203 -0.1432841 0.07643207 0.042533554 -0.14100799 0.029283717 -0.12532994 -0.10926726 -0.06970408 0.065967165 0.06265239 0.02194444 0.0051709805 -0.044324264 0.030645449 -0.051405355 -0.038517345 -0.061357643 -0.09342655 0.27639627 0.083923526 0.036632977 -0.08513656 -0.099628195 0.22425784 0.12103175 -0.14779857 -0.09862074 -0.29253292 -0.0458568 -0.13864565 -0.07807898 -0.08892953 0.09545522 0.004031456 -0.08662297 0.10142623 0.07408082 0.059237383 -0.017613865 -0.2540312 -0.025897432 -0.025858391 -0.2492059 0.1359194 0.13516209 -0.11643763 -0.13407788 0.2187671 0.08342025 0.07824735 -0.023347408 -0.064716585 -0.1786977 0.1748981 0.02460808 0.121264435 -0.21311973 0.18997183 -0.08929685 -0.041395266 0.3066592 -0.06660203 0.31335965 0.15264295 0.020779224 -0.027435686 -0.05918665 -0.08370589 -0.09602501 0.086482234 -0.114155844 0.21879049 -0.015276883 -0.07569942 0.05214328 0.20881663 0.18755345 0.15169618 0.23281696 0.0025982228 -0.013388668 0.10886164 0.10533352 0.12972556 0.062030517 -0.19752017 0.053077098 0.048025917
цена -0.10780899 0.07149602 0.09388403 0.020735541 0.11734932 -0.4395067 0.030458143 0.34797496 -0.15160796 -0.2416286 -0.18828246 -0.30149648 -0.17176735 0.038664863 0.07599483 -0.1467709 0.13597475 -0.15546638 0.01740228 -0.16138338 0.18371467 0.09596501 -0.019667424 -0.0090533085 -0.08039358 0.11620081 -0.10300163 -0.10319318 -0.022528062 0.003911678 0.17236076 0.10129782 -0.0015868712 -0.17922814 -0.09639031 0.25207967 0.14549442 -0.12402484 -0.08035268 -0.19193299 -0.0020397217 -0.2318923 -0.18014188 -0.14831759 0.18251064 -0.031869307 -0.15745921 0.096971795 0.12427185 0.044789094 0.08347003 -0.2081769 0.010005323 -0.027039953 -0.22824031 0.07181938 0.13695218 -0.10968983 -0.059274007 0.27608475 -0.061679162 -0.0018059363 -0.018387917 -0.009679664 -0.10628016 0.17184946 0.055593077 0.0621315 -0.20083316 0.15788077 -0.09880476 -0.06262134 0.35192335 -0.06305764 0.22503462 0.10514495 0.07159435 -0.029324494 -0.0144316945 -0.08285256 -0.19025595 0.083622254 -0.000519588 0.11482118 0.08865845 -0.1375294 0.13757372 0.29672107 0.27334765 0.13746762 0.2916645 0.05306895 0.03342743 0.09062214 0.011919631 0.13103423 0.0635392 -0.14506209 0.03869928 0.13193272
опубликовывать -0.12820119 0.016142752 0.023340924 -0.0074656615 0.044462353 -0.37503135 0.04096261 0.32262975 -0.13104123 -0.13002641 -0.12033698 -0.24756736 -0.1742751 0.079167254 0.060023565 -0.13858943 0.020551052 -0.12838897 -0.08785895 -0.07922723 0.080384694 0.0632809 0.05030679 -0.017003171 -0.05854058 0.017373823 -0.020251576 -0.06669487 -0.06290249 -0.085498184 0.32502055 0.090350464 0.04880217 -0.08845114 -0.09873707 0.21464065 0.11695671 -0.13041908 -0.09143765 -0.28067458 -0.03384797 -0.1196215 -0.103408985 -0.11152898 0.10855824 0.009963822 -0.05827703 0.061982065 0.10269925 0.04689833 0.003925661 -0.22626196 -0.043114584 -0.0069270483 -0.24546446 0.12204988 0.14560194 -0.10359575 -0.12651299 0.21298689 0.06977329 0.11183605 -0.048081648 -0.06841267 -0.18887508 0.16848125 -0.008301652 0.08206292 -0.20738076 0.17211314 -0.12295664 -0.053584915 0.2677736 -0.08065839 0.28746817 0.11913355 0.02420369 -0.055679947 -0.07371684 -0.051890716 -0.09190984 0.05847647 -0.10846425 0.22675572 0.0045730635 -0.030020216 0.045922805 0.21442002 0.1626876 0.1359916 0.20705657 -0.031699706 0.0025791295 0.080689915 0.11156486 0.12392385 0.064703085 -0.19557355 0.059155528 0.022279132
лента -0.14381859 0.0317601 0.013278926 -0.003849523 0.059308495 -0.33887923 0.04533314 0.30678865 -0.121157 -0.15594405 -0.099234775 -0.2067302 -0.14974454 0.07367905 0.04644834 -0.14550236 0.046199985 -0.10856087 -0.07028815 -0.09815509 0.098806724 0.049488116 0.010614114 -0.002178931 -0.03553313 0.004489322 -0.029311942 -0.07822453 -0.06710381 -0.100137055 0.2685934 0.10024028 0.019561818 -0.09792251 -0.09299055 0.21214555 0.11699557 -0.13185441 -0.09469575 -0.24238726 -0.027507145 -0.1310789 -0.08449873 -0.11400768 0.10735579 -0.015118639 -0.07706681 0.097101994 0.103414066 0.04193511 0.000544968 -0.20303081 -0.030288195 -0.017216977 -0.21948253 0.10336831 0.13595453 -0.11831047 -0.112728365 0.17360714 0.046284996 0.10215751 -0.020989113 -0.08426857 -0.17578545 0.17658986 0.0019447376 0.068511605 -0.20678653 0.1458767 -0.124934494 -0.05221307 0.25790825 -0.09125474 0.2740602 0.12868471 0.01981549 -0.032815315 -0.06867195 -0.069519415 -0.096587405 0.060821675 -0.1126432 0.20703398 0.012525551 -0.02341704 0.07178753 0.17711987 0.18119891 0.15836746 0.21338333 0.0033399842 0.0072278166 0.0874461 0.09320702 0.13364308 0.04406172 -0.19896245 0.055973392 0.02835693
приводить -0.12891944 0.0143890865 0.02329473 -0.012292452 0.042220514 -0.39564514 0.04514794 0.29959622 -0.15452011 -0.14814867 -0.1262692 -0.2401014 -0.15820414 0.08103331 0.06511506 -0.14944582 0.035366844 -0.11125656 -0.080721974 -0.08160556 0.102221385 0.06327678 0.028733796 0.0026437552 -0.05727422 0.021848278 -0.036477305 -0.09959248 -0.04878912 -0.09936285 0.29763916 0.10296672 0.03632012 -0.08323441 -0.1027984 0.22555937 0.11869943 -0.1206751 -0.09923073 -0.2731621 -0.010245935 -0.13321258 -0.11945345 -0.12531567 0.09360266 -0.008893497 -0.09585959 0.08846451 0.092800125 0.031654973 -0.0031949366 -0.23577553 -0.0292185 -0.014327676 -0.24097164 0.12469394 0.12888229 -0.12778895 -0.10879618 0.20910493 0.058765177 0.10332635 -0.04821158 -0.08506475 -0.15799175 0.17140512 0.00050039 0.0685179 -0.21584934 0.16387697 -0.11734503 -0.036021307 0.29633167 -0.07314155 0.27682972 0.14294359 0.043302473 -0.019727 -0.068501614 -0.07972785 -0.09646246 0.03508991 -0.10554001 0.22118615 -0.015448689 -0.05970436 0.06989945 0.20012204 0.18839268 0.14726444 0.23812573 0.0017599018 -0.0028246976 0.09151739 0.09276368 0.11539387 0.0692392 -0.18277575 0.04864052 0.03920409
организация -0.13241285 -0.0073988717 0.038429674 -0.00707277 0.05346884 -0.410204 0.02298073 0.3366859 -0.13033073 -0.15151155 -0.13194636 -0.24955681 -0.18407851 0.082636595 0.04692304 -0.15758717 0.01597014 -0.13911963 -0.111230455 -0.05603932 0.09000408 0.07517968 0.025476256 -0.0056888107 -0.041194286 0.029773377 -0.046975914 -0.08620342 -0.057632763 -0.10365357 0.32242694 0.10669347 0.055872113 -0.09097097 -0.11757359 0.23919794 0.1156648 -0.14217737 -0.11130942 -0.2735787 -0.022966605 -0.12771735 -0.10365625 -0.11544262 0.101604074 -0.027165748 -0.072751045 0.08011358 0.1127459 0.0552408 -0.018075729 -0.24807332 -0.034004137 0.009644946 -0.23077863 0.15493737 0.1599876 -0.12436947 -0.11794601 0.21555915 0.06384245 0.097921275 -0.042400923 -0.09997299 -0.20700055 0.18431441 -0.01783884 0.06946628 -0.20595253 0.190687 -0.12632379 -0.05230845 0.30175948 -0.083805695 0.3213345 0.16084452 0.0552906 -0.04912986 -0.0857003 -0.08386475 -0.09321588 0.059051305 -0.11884101 0.23748764 -0.018601246 -0.036492262 0.032105643 0.2288686 0.17895077 0.17313373 0.20619662 -0.019646462 -0.0013800603 0.096021906 0.09911931 0.12774122 0.059324786 -0.17524824 0.044610605 0.025720555
число -0.14640026 0.011469805 0.022055998 -0.016071543 0.0487539 -0.40998393 0.046231482 0.3348049 -0.12863116 -0.1641326 -0.12682761 -0.24299315 -0.15119867 0.08445571 0.05007152 -0.15550302 0.02668822 -0.13041976 -0.087850526 -0.08066341 0.1017723 0.056326393 0.021700127 -0.029479727 -0.03380733 0.028850349 -0.051436555 -0.080740854 -0.06156166 -0.112421185 0.30132103 0.09857089 0.033826772 -0.07864753 -0.097107254 0.22867338 0.09351065 -0.1466031 -0.08649536 -0.29116112 -0.03423095 -0.13670541 -0.11416718 -0.12778975 0.09924908 -0.02471253 -0.076838024 0.0728304 0.08235938 0.060328852 -0.012683795 -0.23938487 -0.035133164 -0.010725266 -0.2276281 0.14169037 0.14018238 -0.10928353 -0.11296519 0.22895198 0.06985044 0.0919815 -0.03437792 -0.08733765 -0.19123916 0.19274443 -0.004859857 0.06352771 -0.20596151 0.19106518 -0.09401517 -0.040519055 0.31431967 -0.08340696 0.295789 0.12863283 0.04221001 -0.05797429 -0.07439791 -0.055259977 -0.11156846 0.046673525 -0.114681356 0.2161737 0.00096199906 -0.046903983 0.042762864 0.20964333 0.20859647 0.1350249 0.20814809 -0.0200159 0.015711553 0.0856518 0.08411498 0.12337305 0.065589994 -0.18727776 0.049971364 0.058825683
оказываться -0.14556767 0.028366705 0.04380726 -0.010547299 0.05382488 -0.4020938 0.027912715 0.32301095 -0.13565251 -0.1660373 -0.14406586 -0.26316515 -0.16842748 0.08975988 0.06648809 -0.14677165 0.035154294 -0.12555589 -0.069243 -0.08962707 0.095799215 0.05982746 0.016521577 -0.002212597 -0.06462072 0.039247654 -0.055665158 -0.09667836 -0.044435136 -0.08638928 0.28680593 0.10122567 0.025053041 -0.098504424 -0.10559467 0.20492217 0.112615556 -0.11808871 -0.08143624 -0.26633677 -0.032354172 -0.1377856 -0.1288247 -0.1316847 0.09577334 -0.015422812 -0.10012795 0.086839266 0.10796827 0.06633574 0.0005365069 -0.23209988 -0.017390678 -0.02614743 -0.22528836 0.12998113 0.14395696 -0.13058974 -0.107698135 0.22587766 0.028753858 0.09328644 -0.040066827 -0.062268354 -0.18860051 0.16601604 0.002394263 0.070117824 -0.21324392 0.1835101 -0.10096106 -0.057342224 0.2997465 -0.097475395 0.2822384 0.117349476 0.05606457 -0.032597113 -0.071013704 -0.05559206 -0.119981945 0.04509145 -0.100549385 0.21533202 0.0037509236 -0.065188125 0.063654184 0.22706151 0.21566962 0.13148712 0.21195254 0.0018260448 0.011272819 0.09393189 0.08346776 0.12499292 0.05577275 -0.17757012 0.052667446 0.07515398
группа -0.13171566 0.018939944 0.022146814 0.0045896918 0.048402987 -0.40646067 0.04875146 0.32376117 -0.13839883 -0.16300295 -0.100247495 -0.24399592 -0.15177214 0.090466306 0.061406348 -0.1376227 0.027473645 -0.1281806 -0.09059429 -0.0748111 0.06592508 0.056781653 0.017791266 -0.002132679 -0.0452541 0.02947111 -0.037112217 -0.08913936 -0.050000034 -0.09605643 0.32299727 0.09828813 0.04650359 -0.08329215 -0.116468914 0.21278995 0.117074355 -0.12835968 -0.08956874 -0.28468797 -0.02748206 -0.13507235 -0.09086577 -0.12019886 0.08673349 -0.008810421 -0.077752896 0.08766228 0.08781542 0.071673825 -0.0120829735 -0.24765326 -0.03683173 -0.0043088803 -0.23037632 0.14649297 0.13997716 -0.12947242 -0.13766764 0.22206041 0.074136205 0.08712169 -0.032090146 -0.070914306 -0.1858942 0.1638956 0.0020893512 0.062090114 -0.2123321 0.19241102 -0.094021365 -0.053553168 0.30193853 -0.10208555 0.3125688 0.13903809 0.023420274 -0.030030666 -0.07824361 -0.058217544 -0.10000222 0.06019651 -0.114364184 0.19941244 -0.018054519 -0.05202989 0.033531662 0.23077524 0.20116629 0.14516059 0.22148533 -0.013469567 0.0011626991 0.094729565 0.109631225 0.13131267 0.04970039 -0.19692157 0.042481594 0.052831274
помощь -0.12835436 0.023954123 0.031486135 -0.013873069 0.05439201 -0.40757662 0.047545705 0.30888292 -0.12891257 -0.17732652 -0.12481746 -0.257332 -0.16247356 0.10344564 0.04132307 -0.13248782 0.019459613 -0.11494208 -0.10162473 -0.09205425 0.08776632 0.06982298 0.025872434 -0.017291049 -0.05407902 0.042057138 -0.05252613 -0.088753745 -0.065679796 -0.08642391 0.30597547 0.08735865 0.047436547 -0.09956374 -0.09773217 0.22580867 0.09689335 -0.1293497 -0.07861243 -0.28385758 -0.035626337 -0.12682937 -0.11783996 -0.12525064 0.10834464 -0.014467956 -0.07747451 0.07862769 0.10175201 0.053623896 0.00761819 -0.24907044 -0.022065194 -0.00026350786 -0.23377371 0.1432635 0.12678544 -0.12090582 -0.1145584 0.21784271 0.06539863 0.09159767 -0.035496842 -0.051647168 -0.17240793 0.17103086 0.009339306 0.056718603 -0.20503277 0.18091916 -0.107392445 -0.031757712 0.312438 -0.099282175 0.29181445 0.14047173 0.033193845 -0.051051937 -0.06853228 -0.07864582 -0.10373507 0.059771623 -0.11691569 0.21589772 -0.00411627 -0.061411053 0.053648178 0.21558776 0.19283882 0.15276912 0.21318829 0.005173714 0.01094712 0.08944945 0.09885852 0.11879229 0.059856713 -0.18806574 0.061294686 0.042152606
женщина -0.14662859 0.02515531 0.022138216 -0.009401442 0.047173034 -0.4038367 0.04527408 0.30200627 -0.11636741 -0.1623062 -0.15124898 -0.26031488 -0.16373473 0.094894975 0.04721521 -0.13693753 0.019489428 -0.13571474 -0.0680945 -0.09222363 0.096476994 0.07497729 0.036132865 -0.0294884 -0.05412463 0.027619874 -0.04351312 -0.10310261 -0.06186068 -0.095822655 0.30847663 0.10420404 0.05148732 -0.08361957 -0.1139205 0.21189344 0.07790866 -0.13528898 -0.072130635 -0.26740015 -0.028406564 -0.15175791 -0.11233863 -0.14049938 0.09433192 -0.015153703 -0.0966308 0.08815677 0.082015775 0.062081058 0.012111336 -0.23934911 -0.018426454 -0.020240167 -0.2268591 0.13712673 0.14673957 -0.11740657 -0.13161927 0.22809774 0.05324973 0.11084617 -0.04766286 -0.06319408 -0.16714306 0.16477644 -0.005999657 0.06593124 -0.22004399 0.16619116 -0.09716797 -0.043871835 0.29781923 -0.09986487 0.3021466 0.12710068 0.038920183 -0.042175103 -0.049317863 -0.058684412 -0.11224423 0.03843648 -0.11754861 0.2352429 0.010394211 -0.06646484 0.065311894 0.21268022 0.20200856 0.13525914 0.22199184 0.004985861 0.011011097 0.072527274 0.080737405 0.12756811 0.05668477 -0.18013206 0.06724702 0.05862549
передавать -0.12824431 -0.00025784815 0.0047266665 0.01989375 0.060669925 -0.3484604 0.033020202 0.34295812 -0.20925815 -0.114482 -0.12150433 -0.23971856 -0.14174332 0.10766673 0.05949396 -0.16113213 0.008008926 -0.117431134 -0.104470596 -0.07056531 0.058639582 0.0367535 0.054672908 0.0024131257 -0.05690425 0.014406041 -0.0052255783 -0.04612815 -0.07519681 -0.12106217 0.3197113 0.09301817 0.042146828 -0.064127825 -0.076069355 0.20824836 0.13231415 -0.16202016 -0.14526942 -0.26672456 -0.040193144 -0.1508425 -0.1124349 -0.0876767 0.08270264 0.0026385824 -0.0442813 0.09214324 0.08946155 0.046569165 -0.011545897 -0.25851864 -0.004644356 -0.046630822 -0.25179732 0.1251872 0.119626194 -0.120304264 -0.13159078 0.18365806 0.09809023 0.090981536 -0.024526296 -0.09829228 -0.18791236 0.15009919 -0.0077592186 0.13582136 -0.24324152 0.21615607 -0.109715484 -0.066865474 0.2872824 -0.08812471 0.3217493 0.13602194 0.039037142 -0.008962169 -0.05129927 -0.07482985 -0.087894246 0.043296505 -0.1488628 0.23327027 -0.068682246 -0.0994554 0.05641292 0.18580027 0.1684164 0.14555338 0.2575655 -0.0010010146 -0.0027263083 0.14709912 0.14783129 0.14608403 0.069412865 -0.22231661 0.06254423 0.00806849
признавать -0.15298721 0.004261187 0.022558779 0.0012564039 0.04275422 -0.3979851 0.0439136 0.3123798 -0.12735228 -0.14854856 -0.121236995 -0.25777924 -0.15066357 0.09409797 0.06866832 -0.16253822 0.030871147 -0.12300725 -0.07548479 -0.08184714 0.10576498 0.07381302 0.0015489003 0.0041550463 -0.055510134 0.02915401 -0.06285185 -0.08795599 -0.055401187 -0.10240022 0.29753438 0.10576621 0.03899594 -0.080369264 -0.093573496 0.21926393 0.12955703 -0.13905902 -0.093448885 -0.25313166 -0.043174826 -0.13466026 -0.10509976 -0.10607175 0.08658196 0.0020475609 -0.08706608 0.1091562 0.10203494 0.076990575 0.0047789267 -0.2493011 -0.011034515 -0.016641218 -0.24211124 0.15695776 0.15295087 -0.104053736 -0.11725298 0.23567173 0.070884846 0.09582854 -0.03043178 -0.098588325 -0.20429318 0.17619713 -0.021835694 0.09415077 -0.21947497 0.17894098 -0.10499115 -0.044161927 0.31574458 -0.079500996 0.30308393 0.13423057 0.03826752 -0.024244897 -0.083632156 -0.0690461 -0.11153161 0.074802384 -0.1241361 0.22057882 -0.006766725 -0.04318739 0.047059666 0.19404823 0.19169687 0.15676032 0.21678045 -0.012491501 0.009610906 0.10234643 0.07772597 0.14891358 0.07083436 -0.17575026 0.043672293 0.022350721
лидер -0.11045317 -0.0022079009 0.026618594 0.029626604 0.040936776 -0.38569045 0.048718926 0.32664838 -0.17514397 -0.16847202 -0.1280313 -0.23550536 -0.13497375 0.11464311 0.047483586 -0.15317096 0.0029850388 -0.116864234 -0.11271635 -0.05650187 0.083296575 0.047374018 0.01258221 0.0074246405 -0.03151743 0.0007984557 -0.035149798 -0.05752402 -0.055596247 -0.10980215 0.30370682 0.09020061 0.05181584 -0.08893749 -0.09704335 0.24849051 0.1471059 -0.13211554 -0.1030157 -0.30590796 -0.040787797 -0.11916856 -0.059286315 -0.08963703 0.09467681 0.0052505042 -0.089345574 0.120513074 0.10499065 0.046825685 -0.016433537 -0.25461292 -0.034528725 -0.003062287 -0.26036417 0.14875619 0.12619989 -0.13901767 -0.14873931 0.22552685 0.08842729 0.110456735 -0.020197729 -0.08854661 -0.23390433 0.15666589 0.0032781274 0.12250957 -0.22252361 0.21122062 -0.10901379 -0.0354548 0.31541246 -0.09277299 0.34534943 0.15322882 0.059425104 -0.046791103 -0.07153048 -0.08207243 -0.090470314 0.0853294 -0.13402547 0.21466155 -0.02018647 -0.07141787 0.04562711 0.21920791 0.1970965 0.18299761 0.20441292 -0.0029582512 -0.01902487 0.14169694 0.105407014 0.11696169 0.0477441 -0.19069518 0.046012007 0.030909797
отношение -0.14904982 0.022410888 0.01828626 -0.0052114693 0.057300985 -0.41327715 0.052763823 0.31680104 -0.13648586 -0.14103016 -0.12512428 -0.25475177 -0.16829026 0.11014414 0.04451284 -0.16205217 0.026045656 -0.1318979 -0.10829784 -0.07475113 0.09565001 0.08275502 0.022583533 -0.027830383 -0.043874692 0.011457164 -0.04423234 -0.09639329 -0.080409646 -0.12000493 0.32724696 0.10319596 0.037023306 -0.08767454 -0.11103369 0.22531413 0.09579522 -0.1482897 -0.09581052 -0.29392156 -0.04419185 -0.111377075 -0.08827501 -0.11094141 0.0770484 -0.008399139 -0.09254309 0.09411444 0.09162859 0.06793922 0.003971168 -0.25798574 -0.025793292 -0.010251695 -0.2511919 0.18024229 0.1308571 -0.12657492 -0.13497114 0.21216597 0.09623813 0.115754746 -0.025756702 -0.101174675 -0.20912628 0.1636298 -0.026825294 0.08891717 -0.2094307 0.17778577 -0.087984756 -0.04186784 0.29638833 -0.09515086 0.31356212 0.15179928 0.048087083 -0.022905944 -0.09424164 -0.073997065 -0.11715753 0.063974455 -0.14005166 0.22727022 -0.0188706 -0.044553295 0.05422992 0.19626407 0.20086132 0.1595263 0.23711562 -0.007653326 -0.011374482 0.083633706 0.08942571 0.14228892 0.07170754 -0.17993547 0.054985937 0.04844727
